tree
version=v2
num_class=1
num_tree_per_iteration=1
label_index=0
max_feature_idx=4
objective=binary sigmoid:1
feature_names=lat lon mean std catenc
feature_infos=[0:0.99875000000000003] [0:0.99875000000000003] [-0.61148452758789062:64.065910339355469] [4.3347539901733398:9.4251060485839844] [-0.65508266899841816:56.967477541822156]
tree_sizes=7644 7671 7680 7681 7687 5945 5949 6024 6098 5720 7718 7720 7714 7716 7713 7682 7690 7692 7687 7685 6271 6351 6273 6507 6509 7750 7744 7727 7745 7742 7715 7731 7715 7731 7714 7758 7754 7754 7762 7754 7777 7785 7783 7778 7779 7741 7753 7763 7757 7527 7803 7787 7776 7809 7811 7812 7808 7819 7815 7816 7746 7747 7750 7750 7752 5543 5622 5543 5623 5619 7833 7828 7837 7829 7841 7829 7829 7823 7831 7832 7810 7813 7818 7820 7824 7806 7800 7811 7791 7798 7825 7825 7824 7821 7821 7836 7831 7841 7822 7832 7815 7823 7820 7803 7814 7873 7856 7856 7843 7842 5809 5808 5805 5278 5285 7825 7827 7833 7849 7831 7820 7826 7833 7838 7841 7829 7818 7821 7818 7836 5640 5727 5723 5717 6099 7803 7799 7816 7823 7815 7823 7838 7853 7815 7848 7808 7808 7821 7811 7807 7841 7842 7835 7858 7851 7852 7857 7860 7858 7856 7858 7846 7856 7858 7849 7827 7828 7830 7844 7832 7862 7875 7858 7868 7864 7033 6881 6885 6872 7036 6109 6199 6112 6207 6125 7878 7873 7878 7881 7868 7856 7872 7865 7854 7852 7851 7875 7862 7852 7874

Tree=0
num_leaves=100
num_cat=0
split_feature=3 2 1 2 1 0 3 0 0 0 1 1 1 0 3 0 2 4 2 1 0 0 1 4 4 4 2 2 4 4 2 3 2 0 0 2 0 3 1 3 1 1 1 1 2 1 2 0 2 1 0 2 3 1 0 0 1 0 2 1 2 0 1 3 4 2 3 1 2 2 4 4 3 2 2 4 1 1 0 3 1 0 2 3 3 0 2 3 2 1 0 0 1 0 2 2 2 2 4
split_gain=65.214 41.4632 57.731 81.1996 34.7385 37.0291 32.1294 46.9343 29.3457 25.9421 32.7343 24.2911 21.5931 23.1118 26.0465 23.263 20.8436 23.9036 48.4758 20.7259 20.4529 19.892 19.8944 43.5614 29.7103 23.7577 23.6678 19.0576 18.0318 26.7777 30.0092 22.5717 16.7193 39.5438 26.5141 53.6153 52.0207 31.2139 22.8176 18.648 18.2507 16.1844 22.3592 15.6499 29.4456 16.7623 15.3356 15.0164 20.3936 19.6097 23.4574 13.3452 13.3065 13.1986 12.8907 12.6402 11.6535 11.4586 11.1766 11.0176 10.9766 10.4601 10.0405 9.74756 9.2292 8.90852 8.74056 8.49392 8.25764 10.1101 7.96374 7.58429 8.07337 7.53682 7.13922 6.46552 6.37859 12.6307 6.19454 6.09828 6.06533 6.89478 5.87417 5.63538 5.60404 5.37605 5.28037 9.70602 4.91074 4.83889 4.75023 4.44624 4.36786 10.1079 4.79072 3.13815 3.12927 3.95672 2.85716
threshold=9.1712288856506365 9.9107980728149432 0.6618750000000001 2.8893165588378911 0.7868750000000001 0.99187500000000017 5.8671205043792733 0.33562500000000006 0.55437500000000017 0.89937500000000015 0.97562500000000008 0.30937500000000007 0.82937500000000008 0.77937500000000015 9.0139603614807147 0.69562500000000005 7.7021098136901864 9.8645466917371074 11.050119876861574 0.9118750000000001 0.41437500000000005 0.12312500000000001 0.74437500000000012 50.610026065167226 11.870957795723248 9.8645466917371074 11.629086017608644 48.394514083862312 18.348539174182736 12.274104654759368 7.1277236938476571 8.9201402664184588 2.8893165588378911 0.33562500000000006 0.17062500000000005 3.9547500610351567 0.84062500000000007 8.6634159088134783 0.020625000000000004 8.6419968605041522 0.26062500000000005 0.041875000000000009 0.46312500000000006 0.77687500000000009 8.7871437072753924 0.98687500000000006 56.736640930175788 0.66437500000000005 56.985607147216804 0.40937500000000004 0.9118750000000001 13.566956520080568 5.5707035064697275 0.87437500000000012 0.016875000000000005 0.30062500000000009 0.85812500000000014 0.82187500000000013 5.0629320144653329 0.92187500000000011 57.831737518310554 0.97187500000000016 0.83812500000000012 8.9605846405029315 8.7952099151525918 6.1510314941406259 8.6021456718444842 0.27562500000000006 14.052899837493898 38.968637466430671 12.794152579191696 15.74955336742787 9.0380125045776385 55.723052978515632 8.266304016113283 44.948108000928862 0.020625000000000004 0.083125000000000018 0.70937500000000009 8.715818405151369 0.12687500000000004 0.076875000000000013 57.831737518310554 8.6821465492248553 7.1555967330932626 0.37687500000000002 58.187076568603523 5.2813169956207284 41.12709045410157 0.81937499999999996 0.79937500000000006 0.95187500000000014 0.76687500000000008 0.030625000000000003 11.050119876861574 54.624923706054695 39.861280441284187 40.723007202148445 7.7027757897501905
decision_type=2 2 2 2 2 2 2 2 2 2 2 2 2 2 2 2 2 2 2 2 2 2 2 2 2 2 2 2 2 2 2 2 2 2 2 2 2 2 2 2 2 2 2 2 2 2 2 2 2 2 2 2 2 2 2 2 2 2 2 2 2 2 2 2 2 2 2 2 2 2 2 2 2 2 2 2 2 2 2 2 2 2 2 2 2 2 2 2 2 2 2 2 2 2 2 2 2 2 2
left_child=1 2 32 -4 -2 9 7 11 43 51 16 96 21 15 84 19 -11 74 -19 56 -21 71 24 25 83 -24 -26 52 29 30 -10 -31 33 39 40 36 55 -38 -35 -1 80 91 -43 44 54 62 95 67 49 50 -49 78 88 -16 -5 -36 -14 60 -30 -51 -50 -12 -45 64 -42 -47 -60 -9 -17 -70 -55 92 89 -25 -18 -59 79 -78 98 -41 81 -34 -48 -23 -15 -46 87 -69 -13 -73 -86 -37 94 -94 -8 -29 -3 -98 -6
right_child=4 6 3 8 5 -7 12 47 28 10 61 27 13 14 53 68 17 18 -20 20 -22 22 23 73 26 -27 -28 46 58 31 -32 -33 34 38 35 41 37 -39 -40 76 63 42 -44 45 85 65 82 48 57 59 -52 -53 -54 70 -56 -57 -58 75 66 -61 -62 -63 -64 -65 -66 -67 -68 86 69 -71 -72 72 -74 -75 -76 -77 77 -79 -80 -81 -82 -83 -84 -85 90 -87 -88 -89 -90 -91 -92 -93 93 -95 -96 -97 97 -99 -100
leaf_value=0.017558570519827826 0.022006804155883648 0.014301850446143479 -0.011442950383362061 0.015551856241373837 0.010968501645202999 -0.015698289477583244 0.020508775746675825 0.02152272755721427 0.0023198127717329892 -0.0042696645549714675 -0.015698289477583244 0.003051798163340543 0.017830417310410643 0.020007398347656687 0.019815894680717618 0.019762868651554001 0.010716928149986062 -0.0067430236602110411 0.015071084782000501 0.019042132148328651 0.015472623957642767 0.018036807512750615 0.021916564604949222 0.01920856911697736 0.014887933749749564 0.015110804282962671 0.017861724416406904 0.012873272391030425 0.0055784056697279934 0.0070290894002942497 0.014542401389772608 -0.015698289477583244 0.021175629774531905 0.009301827237282111 0.004301803983716844 0.019170294053922163 0.0086920683063139194 -0.015698289477583244 -0.015698289477583244 0.020016162630102714 0.011752819011917642 0.015749911712082516 0.018687440100992943 0.018906776413669935 0.015730428497607234 0.0020795714122273249 0.0035789090517917123 0.013855465615563767 0.018308603018959188 0.016786623526497214 0.019342305064276345 0.021470025233960598 -0.0027950032916468012 0.014736635070888326 0.0069580663427395509 0.015119464299943566 0.020006042354963127 0.010968501645203001 0.0065240365463759623 0.020921599414455722 0.015807108299566271 0.0014446478187512659 0.016101021966428479 0.021568964843915649 0.017167032264781126 0.013810044886598432 0.016873290936150746 0.013232663097062796 0.010068701965470011 0.015649819077872572 0.0059234331519334715 0.01986569282427237 0.011752819011917642 0.023371659873706117 0.019416377957048127 0.018595275453879345 0.0033494185970168945 0.013298128318582857 0.0053544404618666424 0.012562711943783823 0.02142763194798648 0.018156034972463316 0.01132886367869497 0.020616242835735068 0.018621397087629395 0.021685062205522822 0.021983045433537591 0.018488492471034221 0.012873272391030425 0.013468513247771022 0.022209262702352493 0.023517579380639562 0.023957067550537742 0.014681599042458297 0.016047890286325819 0.016671803627790978 0.022079664237738592 0.016377331764994188 0.017635199227215556
leaf_count=437 30 32 43 36 21 21 32 103 71 27 24 20 450 466 31 41 25 55 40 376 505 135 54 275 424 1338 17902 75 27 24 115 29 131 20 30 368 21 43 23 24 69 925 554 226 52 29 51 797 380 977 111 29 46 36 140 122 1009 21 20 76 634 23 609 41 244 25 122 67 79 238 42 932 23 47 39 1167 39 113 22 40 258 248 34 505 53 27 34 383 24 20 282 22 24 31 207 61 22 38 20
internal_value=0 1.33547 1.23887 1.03475 0.778677 0.612737 1.35127 1.26612 1.06531 0.690693 0.401002 0.831319 1.36743 1.4469 1.59047 1.39162 0.611042 0.756222 0.217878 1.42898 1.28365 1.35358 1.34464 1.22133 1.35495 1.11661 1.3458 0.621612 0.748962 0.479868 0.682225 -0.634485 1.31293 1.14065 1.34757 1.26881 0.606277 -0.813873 -0.417046 1.19478 1.49187 1.32243 1.26259 1.15761 0.867111 1.22686 0.80754 1.2951 1.26899 1.17756 1.03876 1.19879 -0.00434527 0.999322 0.495657 0.930442 1.50537 1.343 1.04416 1.28235 1.24859 -0.987401 1.26114 1.27051 1.18641 0.448487 1.15628 1.45982 1.09545 1.01688 0.64626 1.48674 1.53038 1.56582 1.25653 1.41587 0.869675 0.706501 0.792861 1.17748 1.59196 1.5 0.28865 1.57973 1.6449 1.39647 1.39089 1.35333 0.495657 1.54267 1.74098 1.51615 1.3214 1.58541 1.24603 1.04164 1.32899 1.46505 1.04328
internal_count=36453 36077 5367 1595 376 346 30710 5153 1552 325 233 403 25557 3608 910 2698 186 159 95 2340 881 21949 20680 1714 18966 1392 18326 311 408 239 186 53 3772 696 3076 2085 216 64 43 653 991 1869 1479 1144 255 889 221 4750 4163 1961 908 92 90 109 176 152 1459 2202 169 1053 1014 47 835 354 313 54 142 587 358 317 78 1269 975 322 64 1188 216 152 63 64 637 379 85 640 801 79 484 450 44 952 335 390 294 55 239 136 92 60 41
shrinkage=1


Tree=1
num_leaves=100
num_cat=0
split_feature=3 2 1 2 1 0 3 0 0 0 1 1 1 0 3 0 2 4 2 1 0 0 1 4 4 4 2 2 4 4 2 3 2 0 0 2 0 3 1 3 1 3 0 1 2 1 2 0 2 1 0 2 3 1 0 0 1 0 2 1 2 0 1 3 2 4 2 3 1 2 2 4 4 3 2 2 4 1 1 0 3 1 0 2 3 3 0 2 3 2 1 0 1 0 2 3 2 2 4
split_gain=63.9239 40.6462 56.5947 79.5879 34.0538 36.2942 31.4986 46.009 28.7659 25.4286 32.0841 23.8116 21.1713 22.6606 25.5359 22.8066 20.4298 23.4304 47.5127 20.3202 20.0517 19.503 19.5037 42.7076 29.1295 23.2924 23.2031 18.6795 17.6748 26.2457 29.414 22.124 16.3907 38.7599 25.9945 52.5563 50.9878 30.5946 22.3647 18.2807 17.8937 16.0231 24.7135 15.3412 28.8647 16.4314 15.032 14.7223 19.9933 19.2241 22.9965 13.0831 13.0418 12.9387 12.6354 12.3899 11.4258 11.234 10.9555 10.8021 10.7612 10.253 9.84359 9.55683 9.30767 9.04744 8.7317 8.56789 8.32812 8.0955 9.91051 7.80597 7.43581 7.91488 7.39023 6.99878 6.33835 6.25273 12.3801 6.07188 5.97847 5.94713 6.76023 5.75748 5.52538 5.49503 5.27092 5.21812 5.66802 4.81326 4.74402 4.65776 4.28255 9.91063 4.6969 3.07834 3.06789 3.87944 2.80085
threshold=9.1712288856506365 9.9107980728149432 0.6618750000000001 2.8893165588378911 0.7868750000000001 0.99187500000000017 5.8671205043792733 0.33562500000000006 0.55437500000000017 0.89937500000000015 0.97562500000000008 0.30937500000000007 0.82937500000000008 0.77937500000000015 9.0139603614807147 0.69562500000000005 7.7021098136901864 9.8645466917371074 11.050119876861574 0.9118750000000001 0.41437500000000005 0.12312500000000001 0.74437500000000012 50.610026065167226 11.870957795723248 9.8645466917371074 11.629086017608644 48.394514083862312 18.348539174182736 12.274104654759368 7.1277236938476571 8.9201402664184588 2.8893165588378911 0.33562500000000006 0.17062500000000005 3.9547500610351567 0.84062500000000007 8.6634159088134783 0.020625000000000004 8.6419968605041522 0.26062500000000005 8.6021456718444842 0.25562500000000005 0.77687500000000009 8.7871437072753924 0.98687500000000006 56.736640930175788 0.66437500000000005 56.985607147216804 0.40937500000000004 0.9118750000000001 13.566956520080568 5.5707035064697275 0.87437500000000012 0.016875000000000005 0.30062500000000009 0.85812500000000014 0.82187500000000013 5.0629320144653329 0.92187500000000011 57.831737518310554 0.97187500000000016 0.83812500000000012 8.9605846405029315 8.266304016113283 8.7952099151525918 6.1510314941406259 8.6021456718444842 0.27562500000000006 14.052899837493898 38.968637466430671 12.794152579191696 15.74955336742787 9.0380125045776385 55.723052978515632 8.266304016113283 44.948108000928862 0.020625000000000004 0.083125000000000018 0.70937500000000009 8.715818405151369 0.12687500000000004 0.076875000000000013 57.831737518310554 8.6821465492248553 7.1555967330932626 0.37687500000000002 56.985607147216804 5.2813169956207284 41.12709045410157 0.81937499999999996 0.79937500000000006 0.76687500000000008 0.030625000000000003 11.050119876861574 5.1890301704406747 39.861280441284187 40.723007202148445 7.7027757897501905
decision_type=2 2 2 2 2 2 2 2 2 2 2 2 2 2 2 2 2 2 2 2 2 2 2 2 2 2 2 2 2 2 2 2 2 2 2 2 2 2 2 2 2 2 2 2 2 2 2 2 2 2 2 2 2 2 2 2 2 2 2 2 2 2 2 2 2 2 2 2 2 2 2 2 2 2 2 2 2 2 2 2 2 2 2 2 2 2 2 2 2 2 2 2 2 2 2 2 2 2 2
left_child=1 2 32 -4 -2 9 7 11 43 51 16 96 21 15 85 19 -11 75 -19 56 -21 72 24 25 84 -24 -26 52 29 30 -10 -31 33 39 40 36 55 -38 -35 -1 81 64 -43 44 54 62 95 68 49 50 -49 79 89 -16 -5 -36 -14 60 -30 -51 -50 -12 -45 65 -37 -42 -47 -60 -9 -17 -71 -55 92 90 -25 -18 -59 80 -79 98 -41 82 -34 -48 -23 -15 -46 88 -70 -13 -74 -87 94 -94 -8 -29 -3 -98 -6
right_child=4 6 3 8 5 -7 12 47 28 10 61 27 13 14 53 69 17 18 -20 20 -22 22 23 74 26 -27 -28 46 58 31 -32 -33 34 38 35 41 37 -39 -40 77 63 42 -44 45 86 66 83 48 57 59 -52 -53 -54 71 -56 -57 -58 76 67 -61 -62 -63 -64 -65 -66 -67 -68 -69 87 70 -72 -73 73 -75 -76 -77 -78 78 -80 -81 -82 -83 -84 -85 -86 91 -88 -89 -90 -91 -92 -93 93 -95 -96 -97 97 -99 -100
leaf_value=0.013082132097085468 0.017486975814104001 0.0098574874858270052 -0.015630764536384026 0.011095155117185403 0.006557179630056623 -0.019844243463739246 0.016003499814374694 0.017007593388612893 -0.0020051823967615697 -0.0085287713234116196 -0.019844243463739246 -0.0012805205333324904 0.013351312230536616 0.015507005441761715 0.015317369405133056 0.015264861222303186 0.0063081069471550158 -0.010977471248340538 0.010619125797923953 0.014551161965245495 0.011016705131510903 0.013555679540110029 0.017397611531891788 0.014715973483707583 0.010437782908347877 0.010658453231179437 0.013382312396302163 0.012351786510504271 0.0012208217289897915 0.0026570144925786151 0.010095661556853205 -0.019844243463739246 0.016663866673358504 0.0049070889882259876 -4.3018303157765087e-05 0.0093219544869868019 0.0043034052119611428 -0.019844243463739246 -0.019844243463739246 0.015515684182694882 0.0073337068375011897 0.0085618439007343877 0.013950243512497388 0.014417130923559325 0.011271967980841895 -0.0022430198972780931 -0.00075868325962884014 0.0094155170929987458 0.013824812047202642 0.012317767414394441 0.014848403695519961 0.016955403773039456 -0.0070688379978612395 0.010287977187432018 0.0025867012377605446 0.010667028012917433 0.015505662518851236 0.0065571796300566256 0.0021570043901011473 0.016412306125010667 0.011347892228094686 -0.0028715903102961493 0.011638910989630626 0.017053382248666388 0.014430080854395184 0.012694438891250411 0.0093705454054580223 0.012403581463044901 0.009136368209997808 0.0056663279781492756 0.01119215315309038 0.0015624004830312554 0.015366681612860424 0.0073337068375011897 0.018838634647130308 0.014921751256946525 0.014108676774668047 -0.00098587764770068564 0.0088636957285812574 0.00099909417859732233 0.0081355652472185781 0.016913422680090242 0.013673738482294025 0.0069139616556765284 0.016109918926553012 0.01413454302828822 0.017168353720678781 0.016234810816086912 0.013662442038287259 0.0084430470644987279 0.0090323932530246738 0.017687472627725201 0.019418398486133595 0.010233485573911778 0.011586302814070639 0.0085773620130756966 0.017559130814023213 0.011912501422460409 0.013158008538274004
leaf_count=437 30 32 43 36 21 21 32 103 71 27 24 20 450 466 31 41 25 55 40 376 505 135 54 275 424 1338 17902 56 27 24 115 29 131 20 30 256 21 43 23 24 69 157 1399 226 52 29 51 797 380 977 111 29 46 36 140 122 1009 21 20 76 634 23 609 41 57 244 25 122 51 79 238 42 932 23 47 39 1167 39 113 22 40 258 248 34 505 53 27 76 357 24 20 282 24 31 207 80 22 38 20
internal_value=0 1.32221 1.22657 1.02447 0.77094 0.606643 1.33786 1.25354 1.05472 0.683824 0.39701 0.823044 1.35386 1.43255 1.57473 1.37781 0.604961 0.748699 0.215707 1.4148 1.2709 1.34015 1.3313 1.2092 1.3415 1.10551 1.33244 0.615416 0.741505 0.475085 0.675426 -0.628158 1.2999 1.12931 1.3342 1.25621 0.600241 -0.805763 -0.412888 1.18291 1.47708 1.3093 1.35339 1.14611 0.85848 1.21467 0.799495 1.28224 1.25639 1.16586 1.02843 1.18688 -0.00430181 0.989383 0.490711 0.921179 1.49045 1.32967 1.03377 1.26962 1.23619 -0.977547 1.24861 1.2579 1.04901 1.17462 0.444013 1.14479 1.44534 1.08455 1.00676 0.639816 1.47201 1.51521 1.55031 1.24405 1.40183 0.861015 0.699459 0.784964 1.16578 1.5762 1.48514 0.285767 1.56409 1.62862 1.38262 1.37709 1.32091 0.490712 1.52739 1.72377 1.30829 1.56971 1.23365 1.03127 1.3158 1.45053 1.0329
internal_count=36453 36077 5367 1595 376 346 30710 5153 1552 325 233 403 25557 3608 910 2698 186 159 95 2340 881 21949 20680 1714 18966 1392 18326 311 408 239 186 53 3772 696 3076 2085 216 64 43 653 991 1869 1556 1144 255 889 221 4750 4163 1961 908 92 90 109 176 152 1459 2202 169 1053 1014 47 835 354 313 313 54 142 587 358 317 78 1269 975 322 64 1188 216 152 63 64 637 379 85 640 801 79 484 408 44 952 335 294 55 239 136 92 60 41
shrinkage=0.01


Tree=2
num_leaves=100
num_cat=0
split_feature=3 2 1 2 1 0 3 0 0 0 1 1 1 0 3 1 4 3 2 4 2 4 2 4 0 2 0 1 1 4 3 4 4 2 3 4 2 2 0 0 2 0 3 1 3 1 1 1 1 2 1 1 2 0 2 1 0 0 2 3 0 0 0 2 1 2 0 1 3 4 2 3 1 2 3 4 3 4 1 1 0 3 1 1 0 2 0 2 2 2 4 2 0 2 2 2 4 1 1
split_gain=62.6649 39.8546 55.4962 78.0143 33.3906 35.579 30.8915 45.1121 28.2019 24.928 31.4492 23.3464 20.7751 28.753 25.989 21.9761 25.8935 25.1995 25.7634 27.0194 20.0254 22.9691 46.5715 18.9845 21.087 18.3098 17.7545 20.304 24.7485 19.6298 18.4801 17.3266 25.7254 28.8327 21.6901 17.2215 17.9278 16.0738 37.9944 25.4963 51.5264 49.9782 29.9946 21.9251 17.9254 17.5524 15.8017 21.7717 15.0418 28.3015 16.11 14.9224 14.7361 14.4405 19.6082 18.8522 22.5525 13.6407 12.8308 12.7827 12.3866 12.1458 11.0186 10.7405 10.596 10.5542 10.0534 9.65465 9.37442 8.87166 8.55882 8.40011 8.17024 6.86324 6.60271 6.54153 6.52037 6.21563 6.13069 12.1353 5.95233 5.86311 5.84221 5.83481 6.63211 5.64328 5.17046 5.12756 4.71795 4.53783 6.46728 4.50632 4.35261 3.07316 3.00896 3.80574 2.74635 2.62634 4.49099
threshold=9.1712288856506365 9.9107980728149432 0.6618750000000001 2.8893165588378911 0.7868750000000001 0.99187500000000017 5.8671205043792733 0.33562500000000006 0.55437500000000017 0.89937500000000015 0.97562500000000008 0.30937500000000007 0.81937499999999996 0.78437500000000004 9.0139603614807147 0.74437500000000012 50.610026065167226 8.7309718132019061 22.787584304809574 11.870957795723248 7.7021098136901864 9.8645466917371074 11.050119876861574 9.8645466917371074 0.090624999999999997 48.394514083862312 0.56687500000000013 0.9118750000000001 0.85812500000000014 12.274104654759368 8.9776768684387225 18.348539174182736 12.274104654759368 7.1277236938476571 8.9201402664184588 56.006596621679527 25.720738410949711 2.8893165588378911 0.33562500000000006 0.17062500000000005 3.9547500610351567 0.84062500000000007 8.6634159088134783 0.020625000000000004 8.6419968605041522 0.26062500000000005 0.041875000000000009 0.46312500000000006 0.77687500000000009 8.7871437072753924 0.98687500000000006 0.87437500000000012 56.736640930175788 0.66437500000000005 56.985607147216804 0.40937500000000004 0.9118750000000001 0.61187500000000006 13.566956520080568 5.5707035064697275 0.016875000000000005 0.30062500000000009 0.82187500000000013 5.0629320144653329 0.92187500000000011 57.831737518310554 0.97187500000000016 0.83812500000000012 8.9605846405029315 8.7952099151525918 6.1510314941406259 8.6021456718444842 0.27562500000000006 8.266304016113283 7.1555967330932626 12.794152579191696 5.9614605903625497 44.948108000928862 0.020625000000000004 0.083125000000000018 0.70937500000000009 8.715818405151369 0.29687500000000006 0.12687500000000004 0.076875000000000013 57.831737518310554 0.37687500000000002 43.886699676513679 41.12709045410157 54.624923706054695 54.017660993798856 58.187076568603523 0.95187500000000014 54.624923706054695 39.861280441284187 40.723007202148445 7.7027757897501905 0.030625000000000003 0.12687500000000004
decision_type=2 2 2 2 2 2 2 2 2 2 2 2 2 2 2 2 2 2 2 2 2 2 2 2 2 2 2 2 2 2 2 2 2 2 2 2 2 2 2 2 2 2 2 2 2 2 2 2 2 2 2 2 2 2 2 2 2 2 2 2 2 2 2 2 2 2 2 2 2 2 2 2 2 2 2 2 2 2 2 2 2 2 2 2 2 2 2 2 2 2 2 2 2 2 2 2 2 2 2
left_child=1 2 37 -4 -2 9 7 11 48 58 20 94 15 26 74 17 23 35 19 -19 -11 73 -23 -17 -25 59 27 28 -14 -28 -29 32 33 -10 -34 36 -8 38 44 45 41 61 -43 -40 97 83 92 -48 49 60 67 -16 93 72 55 56 -55 -31 80 88 -5 -41 65 -33 -57 -56 -12 -50 69 -47 -52 -65 -9 -22 -15 -53 -37 -64 81 -80 96 -46 -20 84 -39 -54 -51 -74 -13 90 -18 -89 -42 -27 -3 -96 -6 -1 -99
right_child=4 6 3 8 5 -7 12 53 31 10 66 25 13 14 51 16 89 18 82 -21 21 22 -24 24 -26 52 29 30 -30 57 -32 63 34 -35 -36 76 -38 39 43 40 46 42 -44 -45 78 68 47 -49 50 86 70 75 85 54 62 64 -58 -59 -60 -61 -62 -63 77 71 -66 -67 -68 -69 -70 -71 -72 -73 87 -75 -76 -77 -78 -79 79 -81 -82 -83 -84 -85 -86 -87 -88 91 -90 -91 -92 -93 -94 -95 95 -97 -98 98 -100
leaf_value=0.015113830785812519 0.017316783152684773 0.0097598427590772051 -0.015476795746344517 0.010985495157337863 0.0064919124593286262 -0.019650816343675402 0.012340841286940097 0.016841837396373786 -0.0019851291072261225 -0.0084437911515499731 -0.019650816343675402 -0.0012677137620109755 0.012829619821560842 0.015434298702991412 0.015149786549026092 0.017113520345193887 0.012096699420957327 0.015810280006260672 0.017832317643518694 0.013065042074508065 0.00624530119397882 -0.010868429307375707 0.010514077675209892 0.01481222175174062 0.010301982466705214 0.0083418733661752287 -0.0026478837846065483 0.011788474057123797 0.016709911519673461 0.01044459190091572 0.015575008023094337 0.0012086180018525947 0.0026304739924891333 0.0099956983539552652 -0.019650816343675402 0.0024154480117254914 0.013373663428440515 0.016501304213878808 0.0048581584118822492 -4.258818946705313e-05 0.014545664654499841 0.0042604708063253265 -0.019650816343675402 -0.019650816343675402 0.015363852228824805 0.0072607828335255397 0.011167633300043903 0.014066649512945244 0.014275659481961214 0.011160597692224682 -0.0022205877568986674 0.0096363330198222987 -0.00075109536050061224 0.0093221802985597214 0.013688960315657495 0.01219632046139227 0.014702854313899597 0.013321829300729995 0.016790131516973977 -0.0069983066562348565 0.0025608614227478894 0.010561515256198228 0.0064919124593286279 0.0021354527060807212 0.016252085191109465 0.011235788363260411 -0.0028428751619586751 0.011523998161755391 0.016887200967244474 0.012569378160965601 0.009277646658612821 0.01228131290537937 0.0077506963540575936 0.01477551061812118 0.017284844419069977 0.0015467851475831607 0.010405657510684117 0.013970128589496436 -0.00097601743305465868 0.0087757503820838686 0.00098910564483109097 0.0080547563017833532 0.015294316961147896 0.016748539053015207 0.013539323610680829 0.0068451734330117597 0.017001106616201779 0.013505381123254095 0.0083592223442117818 0.017867886839902567 0.016029034382663534 0.017305345402793059 0.018847665320497951 0.012101155401069969 0.017388270989377501 0.011794952655364089 0.013028513801631983 0.01064849714330595 0.01341619943283893
leaf_count=56 30 32 43 36 21 21 2808 103 71 27 24 20 334 502 36 52 104 491 97 2487 25 55 40 142 1219 75 22 608 507 335 209 27 24 115 29 24 12982 131 20 30 368 21 43 23 24 69 925 554 226 52 29 35 51 797 380 977 111 888 29 46 140 122 21 20 76 634 23 609 41 244 25 122 25 39 338 42 221 1167 39 113 22 40 926 258 248 34 27 425 24 43 105 34 22 61 22 38 20 128 253
internal_value=0 1.30921 1.21449 1.01435 0.763348 0.600658 1.3247 1.2412 1.0443 0.677075 0.393085 0.814894 1.34055 1.4156 1.57171 1.32644 1.19439 1.33652 1.41516 1.35916 0.598982 0.741306 0.21357 1.12369 1.08986 0.609304 1.35628 1.42907 1.54072 1.24789 1.29398 0.734161 0.47037 0.66872 -0.621944 1.31563 1.31991 1.28712 1.11818 1.32108 1.24384 0.5943 -0.79782 -0.408806 1.17124 1.46261 1.29642 1.23729 1.1348 0.849979 1.20269 0.993411 0.791563 1.26962 1.24401 1.15435 1.01825 1.26224 1.1752 -0.00425889 0.485823 0.912054 1.31659 1.02356 1.25711 1.224 -0.967873 1.23631 1.24551 1.16303 0.439594 1.13349 1.43117 1.23181 1.62427 0.591787 0.983585 1.38806 0.852481 0.692508 0.777178 1.15428 1.55805 1.56078 1.47058 0.282916 1.36904 1.36356 0.485827 1.50713 1.43198 1.38667 1.48786 1.02107 1.30286 1.4363 1.02269 1.29534 1.25807
internal_count=36453 36077 5367 1595 376 346 30710 5153 1552 325 233 403 25557 3856 953 21701 1665 20036 4001 2978 186 159 95 1413 1361 311 2903 1658 841 1245 817 408 239 186 53 16035 15790 3772 696 3076 2085 216 64 43 653 991 1869 1479 1144 255 889 113 221 4750 4163 1961 908 1223 92 90 176 152 2202 169 1053 1014 47 835 354 313 54 142 587 64 840 77 245 1188 216 152 63 64 1023 637 379 85 79 484 44 252 209 459 390 136 92 60 41 437 381
shrinkage=0.01


Tree=3
num_leaves=100
num_cat=0
split_feature=3 2 1 2 1 0 3 0 0 0 1 1 1 0 3 1 4 3 2 4 2 4 2 4 0 2 0 4 4 2 3 4 2 1 0 1 2 0 0 2 0 3 1 3 1 3 0 1 2 1 1 2 0 2 1 0 2 3 0 0 3 2 4 2 4 0 1 3 2 4 2 3 1 2 3 4 3 1 1 0 3 1 1 0 2 2 2 0 2 3 2 2 4 3 2 2 3 4 1
split_gain=61.4358 39.0864 54.4338 76.4778 32.748 34.8826 30.3064 44.2422 27.6533 24.4399 30.8291 22.8948 20.3899 28.2225 25.5005 21.5596 25.4069 24.7245 25.2744 26.5179 19.6304 22.5193 45.6516 18.6298 20.6881 17.9484 17.4967 16.987 25.2165 28.2648 21.2695 16.8914 17.586 16.2529 19.4678 17.4741 15.768 37.2467 25.0181 50.5244 48.9913 29.4128 21.4982 17.5815 17.2258 15.6043 24.1277 14.7513 27.7553 15.7977 14.6359 14.4478 14.1701 19.2375 18.4932 22.1246 12.5878 12.529 12.144 11.9077 10.8766 16.9083 13.2043 10.5312 10.4194 9.86107 9.47319 9.19983 9.13097 8.7016 8.3898 8.23702 8.01989 6.73236 6.48206 6.41309 6.39332 6.01232 11.8961 5.83577 5.75196 5.73186 5.72804 6.51003 5.54976 12.1921 5.5315 5.07441 5.05103 5.56914 4.62475 4.45439 6.34477 3.01526 2.95233 3.73542 2.73428 2.69357 2.57628
threshold=9.1712288856506365 9.9107980728149432 0.6618750000000001 2.8893165588378911 0.7868750000000001 0.99187500000000017 5.8671205043792733 0.33562500000000006 0.55437500000000017 0.89937500000000015 0.97562500000000008 0.30937500000000007 0.81937499999999996 0.78437500000000004 9.0139603614807147 0.74437500000000012 50.610026065167226 8.7309718132019061 22.787584304809574 11.870957795723248 7.7021098136901864 9.8645466917371074 11.050119876861574 9.8645466917371074 0.090624999999999997 48.394514083862312 0.69562500000000005 18.348539174182736 12.274104654759368 7.1277236938476571 8.9201402664184588 56.006596621679527 25.720738410949711 0.9118750000000001 0.41437500000000005 0.84812500000000013 2.8893165588378911 0.33562500000000006 0.17062500000000005 3.9547500610351567 0.84062500000000007 8.6634159088134783 0.020625000000000004 8.6419968605041522 0.26062500000000005 8.6021456718444842 0.25562500000000005 0.77687500000000009 8.7871437072753924 0.98687500000000006 0.87437500000000012 56.736640930175788 0.66437500000000005 56.985607147216804 0.40937500000000004 0.9118750000000001 13.566956520080568 5.5707035064697275 0.016875000000000005 0.30062500000000009 5.1890301704406747 57.239994049072273 43.548186342925504 5.0629320144653329 45.730371346773772 0.97187500000000016 0.83812500000000012 8.9605846405029315 8.266304016113283 8.7952099151525918 6.1510314941406259 8.6021456718444842 0.27562500000000006 8.266304016113283 7.1555967330932626 12.794152579191696 5.9614605903625497 0.020625000000000004 0.083125000000000018 0.70937500000000009 8.715818405151369 0.29687500000000006 0.12687500000000004 0.076875000000000013 14.052899837493898 38.968637466430671 57.831737518310554 0.37687500000000002 56.985607147216804 5.2813169956207284 41.12709045410157 54.624923706054695 54.017660993798856 5.1890301704406747 39.861280441284187 40.723007202148445 9.064737796783449 7.7027757897501905 0.030625000000000003
decision_type=2 2 2 2 2 2 2 2 2 2 2 2 2 2 2 2 2 2 2 2 2 2 2 2 2 2 2 2 2 2 2 2 2 2 2 2 2 2 2 2 2 2 2 2 2 2 2 2 2 2 2 2 2 2 2 2 2 2 2 2 2 2 2 2 2 2 2 2 2 2 2 2 2 2 2 2 2 2 2 2 2 2 2 2 2 2 2 2 2 2 2 2 2 2 2 2 2 2 2
left_child=1 2 36 -4 -2 9 7 11 47 56 20 94 15 26 74 17 23 31 19 -19 -11 73 -23 -17 -25 57 33 28 29 -10 -30 32 -8 35 -35 -14 37 43 44 40 59 -42 -39 98 82 68 -47 48 58 66 -16 93 72 54 55 -54 79 90 -5 -40 61 -55 -62 -29 -56 -12 -49 69 -41 -46 -51 -65 -9 -22 -15 -52 -33 80 -79 97 -45 -20 83 -38 96 -86 -53 -50 89 -74 -13 92 -18 -27 -3 -96 -28 -6 -1
right_child=4 6 3 8 5 -7 12 52 27 10 65 25 13 14 50 16 91 18 81 -21 21 22 -24 24 -26 51 84 63 30 -31 -32 76 -34 34 -36 -37 38 42 39 45 41 -43 -44 77 67 46 -48 49 87 70 75 86 53 60 64 -57 -58 -59 -60 -61 62 -63 -64 71 -66 -67 -68 -69 -70 -71 -72 -73 88 -75 -76 -77 -78 78 -80 -81 -82 -83 -84 -85 85 -87 -88 -89 -90 -91 -92 -93 -94 -95 95 -97 -98 -99 -100
leaf_value=0.014967031173834426 0.017150795783973213 0.0096636195013749312 -0.015326174912347341 0.010877570425890668 0.0064274296448211714 -0.019463021889480982 0.012220260443413827 0.016680042712676341 -0.0019652786550973032 -0.0083599573258907097 -0.019463021889480982 -0.0012550354962357413 0.012374216694759244 0.015285109033489799 0.015003018289606903 0.016949357229965191 0.011978641816982365 0.015657684972927327 0.017660366986978329 0.012937591664358785 0.0061832387754610311 -0.010761104980880048 0.010410637943835493 0.014668603745442349 0.010200595949900897 0.012128549576651548 0.016654095539270126 0.0011965370201492064 0.0026042065948267972 0.0098972135965382634 -0.019463021889480982 0.0023913865592548721 0.013243307559804773 0.014274752381290104 0.010791452527008387 0.015048358693235937 0.01634253194441776 0.0048097723306168702 -4.2162130259035966e-05 0.0091114746487664464 0.0042180022712863703 -0.019463021889480982 -0.019463021889480982 0.01521528893148061 0.0071887700506255182 0.0083594356098086412 0.013684347584764394 0.014137002864664992 0.011051009993743331 -0.0021983850191113954 0.009541348012121826 -0.00074358401457744444 0.009230164773702863 -0.0022788173539463365 0.005230306843958408 0.01456029106721825 0.016628794035271812 -0.0069286490120040239 0.0025352876948017255 0.010457623877396292 0.0070044192707263975 0.012142951261786439 0.013817270699241225 0.0021141204861306394 0.012636236088668977 -0.0028144574850463865 0.011410970219355134 0.016725004739988041 0.014171817505679812 0.012446524787190001 0.0091860611123614228 0.012161155894053475 0.0089124540986533045 0.014632286983282563 0.01711901510801677 0.0015313272051957366 0.010303562425544522 -0.00096625737443208396 0.0086890107140854701 0.00097921923854016432 0.007975007324057563 0.015146007822419221 0.016587571415105556 0.013407450361933556 0.0060847483778772773 0.011663533200315164 0.0067772273752657397 0.01683790398931503 0.015927701375758489 0.013399532069309638 0.008276516607440389 0.017696826205154927 0.015874103888165264 0.0083924944633480998 0.017221656464296235 0.011679367397258259 0.011301420790438705 0.012901378073016318 0.012457771894080929
leaf_count=56 30 32 43 36 21 21 2808 103 71 27 24 20 445 502 36 52 104 491 97 2487 25 55 40 142 1219 56 25 27 24 115 29 24 12982 376 505 1161 131 20 30 256 21 43 23 24 69 157 1399 226 52 29 35 51 797 21 38 111 29 46 140 122 53 805 1323 20 1015 23 609 41 57 244 25 122 51 39 338 42 221 39 113 22 40 926 258 248 93 275 34 27 76 357 24 43 105 80 22 38 23 20 381
internal_value=0 1.29644 1.20263 1.0044 0.755898 0.594778 1.31179 1.22907 1.03406 0.670442 0.389226 0.806866 1.32749 1.40185 1.55654 1.31351 1.18271 1.32349 1.4014 1.34592 0.593102 0.734036 0.211465 1.11266 1.07916 0.603275 1.34307 0.726926 0.465722 0.662104 -0.61584 1.3028 1.30704 1.37639 1.24592 1.43966 1.27457 1.10723 1.30822 1.2317 0.588451 -0.790036 -0.404795 1.15977 1.44843 1.28377 1.32729 1.12368 0.841605 1.19093 0.983658 0.783741 1.25722 1.23185 1.14304 1.00823 1.16373 -0.00421642 0.480993 0.903062 1.30376 1.19398 1.36327 1.0135 1.24483 -0.958371 1.22422 1.23334 1.02686 1.15163 0.435231 1.12238 1.41727 1.21978 1.60862 0.585917 0.973924 0.844071 0.685648 0.769503 1.14298 1.54295 1.54571 1.45633 1.10959 1.05233 0.280096 1.35573 1.35028 1.295 0.481001 1.49254 1.41808 1.01102 1.29017 1.42237 1.45464 1.01263 1.28269
internal_count=36453 36077 5367 1595 376 346 30710 5153 1552 325 233 403 25557 3856 953 21701 1665 20036 4001 2978 186 159 95 1413 1361 311 2903 408 239 186 53 16035 15790 2487 881 1606 3772 696 3076 2085 216 64 43 653 991 1869 1556 1144 255 889 113 221 4750 4163 1961 908 92 90 176 152 2202 826 1376 169 1053 47 835 354 313 313 54 142 587 64 840 77 245 216 152 63 64 1023 637 379 416 368 85 79 484 408 44 252 209 136 92 60 48 41 437
shrinkage=0.01


Tree=4
num_leaves=100
num_cat=0
split_feature=3 2 1 2 1 0 3 0 0 0 1 1 1 0 3 1 4 3 2 4 2 4 2 4 0 2 0 1 1 4 3 4 4 2 3 4 2 2 0 0 2 0 3 1 3 1 1 1 1 2 1 1 2 0 2 1 0 0 2 3 0 0 0 1 2 2 0 1 3 4 2 3 1 2 3 4 3 4 1 1 0 3 1 1 0 2 2 0 2 2 4 2 0 2 2 2 4 1 1
split_gain=60.2357 38.3412 53.4057 74.9772 32.1251 34.2043 29.7433 43.3981 27.1194 23.9639 30.2234 22.4563 20.0224 27.7162 25.0311 21.1581 24.9395 24.2699 24.8074 26.0386 19.2444 22.0806 44.7522 18.2897 20.304 17.595 17.3797 19.6614 24.0589 19.1935 18.0812 16.6557 24.7187 27.7883 20.8616 16.5729 17.2872 15.4727 36.5162 24.559 49.5493 48.0265 28.8485 21.0834 17.2485 16.9131 15.4468 21.2245 14.4693 27.2253 15.4943 14.3587 14.1665 13.911 18.8804 18.1463 21.7121 13.4581 12.3536 12.2807 11.9074 11.6755 10.7667 10.3974 10.3447 10.3274 9.6755 9.2988 9.03264 8.53699 8.22451 8.07844 7.87645 6.60591 6.36772 6.28772 6.26954 6.00034 5.89745 11.6622 5.72212 5.64479 5.62727 5.62647 6.39366 5.4221 5.03007 4.98251 4.53359 4.3751 6.22759 4.36786 4.26737 3.01147 2.89789 3.66828 2.64243 2.52834 4.40693
threshold=9.1712288856506365 9.9107980728149432 0.6618750000000001 2.8893165588378911 0.7868750000000001 0.99187500000000017 5.8671205043792733 0.33562500000000006 0.55437500000000017 0.89937500000000015 0.97562500000000008 0.30937500000000007 0.81937499999999996 0.78437500000000004 9.0139603614807147 0.74437500000000012 50.610026065167226 8.7309718132019061 22.787584304809574 11.870957795723248 7.7021098136901864 9.8645466917371074 11.050119876861574 9.8645466917371074 0.090624999999999997 48.394514083862312 0.56687500000000013 0.9118750000000001 0.85812500000000014 12.274104654759368 7.928755760192872 18.348539174182736 12.274104654759368 7.7021098136901864 8.9201402664184588 56.006596621679527 35.533626556396491 2.8893165588378911 0.33562500000000006 0.17062500000000005 3.9547500610351567 0.84062500000000007 8.6634159088134783 0.020625000000000004 8.6419968605041522 0.26062500000000005 0.041875000000000009 0.46312500000000006 0.77687500000000009 8.7871437072753924 0.98687500000000006 0.87437500000000012 56.736640930175788 0.66437500000000005 56.985607147216804 0.40937500000000004 0.9118750000000001 0.61187500000000006 13.566956520080568 5.5707035064697275 0.016875000000000005 0.30062500000000009 0.82187500000000013 0.92187500000000011 57.831737518310554 5.0629320144653329 0.97187500000000016 0.83812500000000012 8.9605846405029315 8.7952099151525918 6.1510314941406259 8.6021456718444842 0.27562500000000006 8.266304016113283 7.1555967330932626 12.794152579191696 5.9614605903625497 44.948108000928862 0.020625000000000004 0.083125000000000018 0.70937500000000009 8.715818405151369 0.29687500000000006 0.12687500000000004 0.076875000000000013 57.831737518310554 43.886699676513679 0.37687500000000002 41.12709045410157 54.624923706054695 54.017660993798856 58.187076568603523 0.95187500000000014 54.624923706054695 39.861280441284187 40.723007202148445 7.7027757897501905 0.030625000000000003 0.12687500000000004
decision_type=2 2 2 2 2 2 2 2 2 2 2 2 2 2 2 2 2 2 2 2 2 2 2 2 2 2 2 2 2 2 2 2 2 2 2 2 2 2 2 2 2 2 2 2 2 2 2 2 2 2 2 2 2 2 2 2 2 2 2 2 2 2 2 2 2 2 2 2 2 2 2 2 2 2 2 2 2 2 2 2 2 2 2 2 2 2 2 2 2 2 2 2 2 2 2 2 2 2 2
left_child=1 2 37 -4 -2 9 7 11 48 58 20 94 15 26 74 17 23 35 19 -19 -11 73 -23 -17 -25 59 27 28 -14 -28 -29 32 33 -10 -34 36 -8 38 44 45 41 61 -43 -40 97 83 92 -48 49 60 67 -16 93 72 55 56 -55 -31 80 88 -5 -41 64 -57 -56 -33 -12 -50 69 -47 -52 -67 -9 -22 -15 -53 -37 -64 81 -80 96 -46 -20 84 -39 -54 -74 -51 -13 90 -18 -88 -42 -27 -3 -96 -6 -1 -99
right_child=4 6 3 8 5 -7 12 53 31 10 66 25 13 14 51 16 89 18 82 -21 21 22 -24 24 -26 52 29 30 -30 57 -32 65 34 -35 -36 76 -38 39 43 40 46 42 -44 -45 78 68 47 -49 50 87 70 75 85 54 62 63 -58 -59 -60 -61 -62 -63 77 -65 -66 71 -68 -69 -70 -71 -72 -73 86 -75 -76 -77 -78 -79 79 -81 -82 -83 -84 -85 -86 -87 91 -89 -90 -91 -92 -93 -94 -95 95 -97 -98 98 -100
leaf_value=0.014823293663761896 0.016988853529074234 0.0095687836130836472 -0.015178779959383612 0.010771327856456748 0.0063637143698694254 -0.01928062428598544 0.012365311724937073 0.016522057097053837 -0.00022369714748215244 -0.0082772416672773647 -0.01928062428598544 -0.0012424851806166399 0.012578745680563417 0.015139096788445189 0.014859312179068898 0.016789136913069054 0.011862567698228986 0.015508429081558797 0.017492769520121826 0.012812436097997539 0.0061219082185884404 -0.010655450660248146 0.010308764068392462 0.014527910697930101 0.010100723022660364 0.0081609762490321945 -0.0027302585487484761 0.0091759433350942759 0.016405825571657689 0.010206703714332603 0.013536667436607926 0.0011845774480606752 0.0025782118330971906 0.010635732093891797 -0.01928062428598544 0.002367571971745796 0.013193812115757913 0.016187409905946963 0.0047619220000375117 -4.174036142638281e-05 0.014277172502396438 0.0041759939499369557 -0.01928062428598544 -0.01928062428598544 0.015069870337170641 0.0071176524589962788 0.010938469109373586 0.013801629384736112 0.014001066727343832 0.010943154523856285 -0.0021764095870414894 0.0094477188635317174 -0.00073614796755391994 0.0091394400324253874 0.013430957443472001 0.011956223124571921 0.014420612528328118 0.013065417695578651 0.016471243491315849 -0.0068598486360809856 0.0025099785461304477 0.010355308081506557 0.0063580005267774541 0.015975240620271551 0.011001587676183233 0.0020930051980865634 -0.0027863352123632511 0.011299773502596304 0.016566639447895871 0.012325808440905112 0.0090957554875516836 0.012043048856746563 0.0075426454255270907 0.014491972656402508 0.016957216287945914 0.0015160254461588616 0.010202998460105136 0.013706188180213996 -0.00095659406560527356 0.0086034453064909085 0.00096943075153893543 0.0078962928736918125 0.015000828962519487 0.016430368071552567 0.013278031028321509 0.0067101052695734235 0.013245837851655876 0.016678586929367602 0.0081949043321197547 0.017530099879515416 0.015722617198221392 0.016988619440919079 0.018538665576672723 0.011883013338570154 0.017059121130669451 0.011565689408541293 0.012776525603374143 0.010422564006985036 0.013164943030785126
leaf_count=56 30 32 43 36 21 21 4930 103 91 27 24 20 334 502 36 52 104 491 97 2487 25 55 40 142 1219 75 22 192 507 335 625 27 24 95 29 24 10860 131 20 30 368 21 43 23 24 69 925 554 226 52 29 35 51 797 380 977 111 888 29 46 140 122 21 76 634 20 23 609 41 244 25 122 25 39 338 42 221 1167 39 113 22 40 926 258 248 34 425 27 24 43 105 34 22 61 22 38 20 128 253
internal_value=0 1.28391 1.19099 0.99461 0.748585 0.589001 1.29911 1.21715 1.02398 0.663923 0.385431 0.798958 1.31467 1.38837 1.54171 1.30081 1.17122 1.31071 1.38791 1.33294 0.587318 0.726888 0.209394 1.10182 1.06862 0.597326 1.33012 1.40216 1.51208 1.22285 1.26919 0.719799 0.461139 0.655577 -0.609844 1.2902 1.2944 1.26226 1.09646 1.29559 1.21977 0.582693 -0.782407 -0.400855 1.1485 1.43455 1.27134 1.21287 1.11275 0.833355 1.17936 0.97406 0.776026 1.24504 1.2199 1.13191 0.998357 1.23705 1.15247 -0.00417449 0.47622 0.8942 1.29115 1.23275 1.1996 1.0036 -0.949038 1.21233 1.22139 1.14042 0.430922 1.11145 1.40366 1.20797 1.59333 0.580119 0.964405 1.36182 0.83578 0.678876 0.761934 1.13187 1.52818 1.53097 1.44236 0.277308 1.33726 1.34267 0.476234 1.47826 1.40446 1.36017 1.46069 1.00111 1.2777 1.40872 1.00273 1.27028 1.2337
internal_count=36453 36077 5367 1595 376 346 30710 5153 1552 325 233 403 25557 3856 953 21701 1665 20036 4001 2978 186 159 95 1413 1361 311 2903 1658 841 1245 817 408 239 186 53 16035 15790 3772 696 3076 2085 216 64 43 653 991 1869 1479 1144 255 889 113 221 4750 4163 1961 908 1223 92 90 176 152 2202 1053 1014 169 47 835 354 313 54 142 587 64 840 77 245 1188 216 152 63 64 1023 637 379 85 484 79 44 252 209 459 390 136 92 60 41 437 381
shrinkage=0.01


Tree=5
num_leaves=77
num_cat=0
split_feature=3 1 2 1 0 0 2 3 4 2 4 2 2 3 2 3 1 0 4 0 2 0 2 0 4 0 4 0 2 2 1 1 1 0 1 1 2 4 2 1 3 2 2 2 2 2 2 2 4 0 4 2 1 4 2 3 1 1 3 2 3 3 2 0 0 1 1 1 0 3 1 3 2 4 2 1
split_gain=71.0033 50.7409 48.0188 78.6167 46.3319 37.0714 41.2455 25.7692 23.5856 20.4952 24.2612 28.4482 19.9649 31.455 19.1539 36.9068 28.1831 24.9574 59.2284 49.2702 38.4167 24.4365 32.5854 28.655 25.2381 23.7845 29.6659 23.2247 22.1506 19.8428 27.2835 24.8362 16.4865 26.0811 16.1327 16.1127 16.0518 30.7865 18.2188 15.7974 13.966 13.8754 13.2862 13.2818 12.9101 11.3227 16.0536 13.9548 10.9875 14.0445 10.5587 10.3063 9.3781 9.30534 29.7202 9.2861 19.3571 10.5468 7.88112 31.5177 15.7133 10.0334 16.8356 6.23181 6.01795 5.92062 15.2284 4.30905 4.24137 4.17703 4.10489 3.43529 7.85654 4.89177 2.92941 1.44831
threshold=9.1000986099243182 0.54062500000000013 2.8893165588378911 0.94437500000000008 0.33562500000000006 0.96187500000000015 8.266304016113283 8.7466111183166522 55.722468339905269 17.482352256774906 9.8645466917371074 7.1277236938476571 49.741970062255866 5.9614605903625497 13.566956520080568 8.7309718132019061 0.6618750000000001 0.33562500000000006 49.703628328524822 0.26937500000000009 40.723007202148445 0.92437500000000006 3.9547500610351567 0.95187500000000014 12.274104654759368 0.53937500000000005 12.274104654759368 0.60062500000000008 9.3645710945129412 22.787584304809574 0.37437500000000007 0.44437500000000002 0.87437500000000012 0.79937500000000006 0.36437500000000006 0.73187500000000005 13.566956520080568 9.8645466917371074 11.050119876861574 0.030625000000000003 8.9327030181884783 4.511528968811036 12.122849464416506 23.421418190002445 6.1510314941406259 15.188296318054201 12.122849464416506 9.9107980728149432 9.3797211022091513 0.63187500000000008 24.700387999894794 7.1277236938476571 0.95437500000000008 35.600973076911671 24.18122482299805 8.5268673896789569 0.054375000000000007 0.14312500000000003 6.6764631271362314 57.239994049072273 6.9648013114929208 5.3706622123718271 59.448497772216804 0.84062500000000007 0.76562500000000011 0.10312500000000001 0.020625000000000004 0.40937500000000004 0.53937500000000005 5.6733140945434579 0.89062500000000011 8.1951093673706072 2.349420547485352 6.0868013664890119 14.052899837493898 0.020625000000000004
decision_type=2 2 2 2 2 2 2 2 2 2 2 2 2 2 2 2 2 2 2 2 2 2 2 2 2 2 2 2 2 2 2 2 2 2 2 2 2 2 2 2 2 2 2 2 2 2 2 2 2 2 2 2 2 2 2 2 2 2 2 2 2 2 2 2 2 2 2 2 2 2 2 2 2 2 2 2
left_child=2 67 3 4 7 9 -7 55 14 10 11 44 13 -10 16 17 21 18 19 -16 -20 24 -23 -24 42 35 27 -27 -28 30 50 -32 43 -34 58 51 37 -8 52 -6 -37 -26 -4 -19 -3 46 47 -12 49 -13 -17 -18 -39 68 -55 71 75 -58 61 -60 -61 62 -14 64 -15 66 -9 -2 -31 -63 -50 72 -1 -73 -48 -57
right_child=1 5 8 -5 39 6 36 65 12 -11 45 48 34 63 15 29 25 32 20 -21 -22 22 23 -25 41 26 28 -29 -30 53 31 -33 33 -35 -36 40 -38 38 -40 -41 -42 -43 -44 -45 -46 -47 74 -49 70 -51 -52 -53 -54 54 -56 56 57 -59 59 60 -62 69 -64 -65 -66 -67 -68 -69 -70 -71 -72 73 -74 -75 -76 -77
leaf_value=0.013554158582329985 0.014152027605589987 0.0051334495571646729 0.013567906084424361 -0.019295493543660492 0.0014683101304736959 -0.020024398829765505 0.010712156478059445 0.00548248511564627 -0.013864552752047692 0.01658235700486952 0.0062188986106975286 0.003252870960089227 0.0089684686928237622 0.0043828681153382518 0.012923519914124427 0.016000994429991172 0.0035911958260556793 0.011870748504351301 -0.015013403494545987 0.0085590726714966491 0.006708549488170768 -0.0085251659282316334 0.0057144613487529897 0.012504025354439514 0.0068970261440271718 -0.001354987470336397 0.0075890824515390401 0.0083281018773078246 0.013516678113106338 0.014952432751528725 0.0085768461088384113 0.013118282296997947 0.012972308309184262 0.015726064689670319 -0.0023903281059775654 0.01364861451001642 0.01107172782516083 -0.0052933818997807245 0.0027282841432830695 -0.019126469756625256 0.011287556353568259 0.012222413651783828 0.016530223994822332 0.012968648948495348 -0.012204203322947985 -0.0054819605210719774 0.010463450350927113 -0.0044073899599739019 0.012770480999501734 0.013289195160194342 0.010194547817654399 0.010153436301399706 -0.019668835962872271 -0.0069042550792808161 0.013752858532040056 0.014295396915128251 0.0079573538076413639 -0.0017372188037437996 0.017597870273382374 -0.012299900863742573 0.005400110115525881 0.014900950154748713 0.013790496065832767 0.0009436950641327573 0.013075468662437235 0.0069980546898836902 -0.01291728512609925 0.01925433536219489 0.01633304564331553 0.012418725912894118 0.017625194658436091 0.014151996120932358 0.0047060189247239695 0.0095031768523334056 0.0044784445086398211 0.011624660400964368
leaf_count=35 38 27 2170 37 21 32 31 26 26 33 53 48 314 24 2191 429 65 1685 31 510 217 28 158 329 92 103 207 104 172 843 221 1640 1224 587 21 557 32 30 38 25 835 1689 169 16881 21 28 69 60 46 46 52 158 32 21 227 60 127 33 21 20 59 129 145 21 31 37 23 28 330 236 33 190 31 42 20 49
internal_value=0 0.876807 1.27787 0.958437 1.01729 0.73669 0.161499 1.07742 1.28345 0.905247 0.813203 1.08103 1.10404 0.510198 1.28841 1.30182 1.23298 1.28422 1.18193 1.22466 0.522418 1.28213 1.02584 1.07741 1.3093 1.11872 0.892835 0.439401 1.07653 1.40285 1.33674 1.26861 1.29802 1.39844 1.15119 1.18847 0.381453 0.100266 -0.459006 -0.682771 1.23126 1.20111 1.38282 1.28748 -0.0285029 0.469433 0.565857 0.156685 1.25415 0.934396 1.55495 0.861963 -1.15104 1.50032 1.29645 1.15485 0.979056 0.648114 1.16876 0.820011 0.251031 1.2034 1.07841 0.826398 1.01577 0.317281 -0.0651222 1.68377 1.537 1.33868 1.52235 1.2878 1.03505 1.34788 0.938083 1.32094
internal_count=36453 745 35708 736 699 679 195 653 34972 484 451 221 1047 102 33925 27089 6836 23326 2949 2701 248 4635 515 487 4120 2201 586 207 379 3763 2342 1861 20377 1811 945 1615 163 131 100 46 1392 1781 2339 18566 48 230 202 113 173 94 481 223 62 1421 248 567 269 160 924 100 79 824 459 76 55 86 49 66 1173 365 79 298 66 232 89 109
shrinkage=0.01


Tree=6
num_leaves=77
num_cat=0
split_feature=3 1 2 1 0 0 2 3 4 2 4 2 2 3 2 3 1 0 4 0 2 0 2 0 4 0 4 0 2 2 1 1 1 0 1 1 2 4 2 1 3 2 2 2 2 2 2 2 4 0 4 2 2 4 2 3 1 3 3 2 3 3 2 0 0 1 1 1 0 3 1 3 2 4 2 1
split_gain=69.6744 49.8049 47.1198 77.0928 45.4275 36.3463 40.4301 25.2825 23.1607 20.1136 23.7999 27.9031 19.5857 30.8304 18.8077 36.2537 27.6804 24.5048 58.1201 48.3576 37.6481 23.9875 31.9501 28.1162 24.7878 23.3439 29.1028 22.7679 21.7435 19.4954 26.7879 24.377 16.2029 25.6333 15.823 15.8148 15.7413 30.1834 17.8614 15.502 13.7077 13.6178 13.0529 13.0405 12.6527 11.0988 15.7413 13.678 10.7856 13.7754 10.3672 10.1092 9.27261 9.13961 29.1517 9.11619 18.9941 10.5085 7.73269 30.9216 15.3988 9.84629 16.5202 6.11184 5.90392 5.80328 14.924 4.23275 4.16685 4.0995 4.03258 3.37166 7.7088 4.80141 2.87298 1.42352
threshold=9.1000986099243182 0.54062500000000013 2.8893165588378911 0.94437500000000008 0.33562500000000006 0.96187500000000015 8.266304016113283 8.7466111183166522 55.722468339905269 17.482352256774906 9.8645466917371074 7.1277236938476571 49.741970062255866 5.9614605903625497 13.566956520080568 8.7309718132019061 0.6618750000000001 0.33562500000000006 49.703628328524822 0.26937500000000009 40.723007202148445 0.92437500000000006 3.9547500610351567 0.95187500000000014 12.274104654759368 0.53937500000000005 12.274104654759368 0.60062500000000008 9.3645710945129412 22.787584304809574 0.37437500000000007 0.44437500000000002 0.87437500000000012 0.79937500000000006 0.36437500000000006 0.73187500000000005 13.566956520080568 9.8645466917371074 11.050119876861574 0.030625000000000003 8.9327030181884783 4.511528968811036 12.122849464416506 23.421418190002445 6.1510314941406259 15.188296318054201 12.122849464416506 9.9107980728149432 9.3797211022091513 0.63187500000000008 24.700387999894794 7.1277236938476571 9.3645710945129412 35.600973076911671 24.18122482299805 8.5268673896789569 0.054375000000000007 8.6634159088134783 6.6764631271362314 57.239994049072273 6.9648013114929208 5.3706622123718271 59.448497772216804 0.84062500000000007 0.76562500000000011 0.10312500000000001 0.020625000000000004 0.40937500000000004 0.53937500000000005 5.6733140945434579 0.89062500000000011 8.1951093673706072 2.349420547485352 6.0868013664890119 14.052899837493898 0.020625000000000004
decision_type=2 2 2 2 2 2 2 2 2 2 2 2 2 2 2 2 2 2 2 2 2 2 2 2 2 2 2 2 2 2 2 2 2 2 2 2 2 2 2 2 2 2 2 2 2 2 2 2 2 2 2 2 2 2 2 2 2 2 2 2 2 2 2 2 2 2 2 2 2 2 2 2 2 2 2 2
left_child=2 67 3 4 7 9 -7 55 14 10 11 44 13 -10 16 17 21 18 19 -16 -20 24 -23 -24 42 35 27 -27 -28 30 50 -32 43 -34 58 51 37 -8 52 -6 -37 -26 -4 -19 -3 46 47 -12 49 -13 -17 -18 -39 68 -55 71 75 -58 61 -60 -61 62 -14 64 -15 66 -9 -2 -31 -63 -50 72 -1 -73 -48 -57
right_child=1 5 8 -5 39 6 36 65 12 -11 45 48 34 63 15 29 25 32 20 -21 -22 22 23 -25 41 26 28 -29 -30 53 31 -33 33 -35 -36 40 -38 38 -40 -41 -42 -43 -44 -45 -46 -47 74 -49 70 -51 -52 -53 -54 54 -56 56 57 -59 59 60 -62 69 -64 -65 -66 -67 -68 -69 -70 -71 -72 73 -74 -75 -76 -77
leaf_value=0.013425602515701317 0.014019113389814524 0.0050825733377182448 0.013439542611434326 -0.019117850586223034 0.0014536430766762937 -0.019825881918605414 0.010608926961054621 0.0054283687168683202 -0.013721584043360916 0.016426520804240691 0.006157412380491961 0.0032207001014657459 0.0088815705345972468 0.0043396543739074121 0.012800554553415644 0.015851195367871676 0.0035555580985363166 0.011757237346075913 -0.014856162294298049 0.0084760120466035264 0.0066427720778602078 -0.0084414190609153651 0.0056584008527750355 0.01238470676822726 0.0068294645902746299 -0.0013413910168866034 0.0075145682078444414 0.008246222710017917 0.013388418968285382 0.014812270899759094 0.0084938031430375673 0.012993815496059536 0.012849121907528916 0.015580006352324609 -0.0023662663414357448 0.013518871151935041 0.010966002219199149 -0.0052167261347171433 0.002701055453715327 -0.018953575227418886 0.011179219486766508 0.012105745943279745 0.016376769250395405 0.012845363228810355 -0.012081139332651985 -0.0054264720544670566 0.010361741810321361 -0.0043630350387568488 0.012647951840001439 0.013161496772229771 0.010096485866935302 0.010055180042135289 -0.019513314084097053 -0.006833660785374715 0.013622933715374127 0.014160529135488655 0.0025365571448508466 0.0095327679881200885 0.017432820692248493 -0.012172687216577252 0.005347050108590109 0.014759604475372145 0.013659222037303815 0.00093428794395593209 0.012950555200936088 0.0069285677256362907 -0.012785994458447053 0.019077862482459126 0.01618116829481191 0.012299926442296345 0.017461033676716472 0.014018047206370959 0.0046597523490343714 0.0094114902210311949 0.0044342099073464139 0.01151217864402033
leaf_count=35 38 27 2170 37 21 32 31 26 26 33 53 48 314 24 2191 429 65 1685 31 510 217 28 158 329 92 103 207 104 172 843 221 1640 1224 587 21 557 32 30 38 25 835 1689 169 16881 21 28 69 60 46 46 52 158 32 21 227 60 83 77 21 20 59 129 145 21 31 37 23 28 330 236 33 190 31 42 20 49
internal_value=0 0.868353 1.26572 0.949227 1.00751 0.72954 0.159928 1.06706 1.27125 0.896468 0.805286 1.07063 1.09343 0.505197 1.27617 1.28945 1.22122 1.27201 1.17063 1.21297 0.517273 1.26994 1.01597 1.06706 1.29687 1.10797 0.884157 0.435045 1.06615 1.38961 1.32408 1.25655 1.28569 1.38527 1.14014 1.17709 0.377747 0.0992856 -0.454481 -0.676215 1.21949 1.18963 1.36976 1.27524 -0.0282185 0.464798 0.560282 0.155124 1.24214 0.925314 1.54036 0.853572 -1.13982 1.48627 1.28416 1.14379 0.969581 0.641751 1.15755 0.81205 0.248544 1.19187 1.06803 0.818365 1.00596 0.314125 -0.0644724 1.66816 1.52263 1.32592 1.50796 1.27555 1.02511 1.33509 0.928937 1.30834
internal_count=36453 745 35708 736 699 679 195 653 34972 484 451 221 1047 102 33925 27089 6836 23326 2949 2701 248 4635 515 487 4120 2201 586 207 379 3763 2342 1861 20377 1811 945 1615 163 131 100 46 1392 1781 2339 18566 48 230 202 113 173 94 481 223 62 1421 248 567 269 160 924 100 79 824 459 76 55 86 49 66 1173 365 79 298 66 232 89 109
shrinkage=0.01


Tree=7
num_leaves=78
num_cat=0
split_feature=3 1 2 1 0 0 2 3 4 2 4 2 2 3 2 3 1 0 4 0 2 0 2 0 4 0 4 0 2 2 1 1 1 0 0 1 1 1 1 2 3 2 2 2 2 0 2 2 2 2 4 0 4 2 4 2 3 1 1 3 2 3 3 2 0 0 1 1 1 0 3 1 3 2 4 2 1
split_gain=68.377 48.8989 46.2456 75.6061 44.5435 35.6378 39.6374 24.808 22.7483 19.7445 23.3515 27.372 19.2159 30.2203 18.4734 35.6281 27.1949 24.0676 57.0427 47.4756 36.8972 23.5531 31.3292 27.5935 24.3551 22.9161 28.5543 22.321 21.3495 19.1632 26.3138 23.9334 15.931 25.2052 15.5621 15.5264 15.5211 15.2154 13.4814 20.2504 13.4591 13.3681 12.8304 12.8084 12.4012 12.0877 33.6181 10.8797 15.4362 13.4069 10.591 13.5139 10.1836 9.91712 8.98041 28.5972 8.9523 18.6428 10.3148 7.58761 30.344 15.0914 9.66585 16.2157 5.99486 5.79321 5.68838 14.6267 4.1606 4.09601 4.0252 3.96373 3.31018 7.56549 4.71438 2.81806 1.39971
threshold=9.1000986099243182 0.54062500000000013 2.8893165588378911 0.94437500000000008 0.33562500000000006 0.96187500000000015 8.266304016113283 8.7466111183166522 55.722468339905269 17.482352256774906 9.8645466917371074 7.1277236938476571 49.741970062255866 5.9614605903625497 13.566956520080568 8.7309718132019061 0.6618750000000001 0.33562500000000006 49.703628328524822 0.26937500000000009 40.723007202148445 0.92437500000000006 3.9547500610351567 0.95187500000000014 12.274104654759368 0.53937500000000005 12.274104654759368 0.60062500000000008 9.3645710945129412 22.787584304809574 0.37437500000000007 0.44437500000000002 0.87437500000000012 0.79937500000000006 0.97187500000000016 0.73187500000000005 0.36437500000000006 0.030625000000000003 0.95437500000000008 10.455594062805178 8.9327030181884783 4.511528968811036 12.122849464416506 23.421418190002445 6.1510314941406259 0.98312500000000014 13.566956520080568 15.188296318054201 12.122849464416506 9.9107980728149432 9.3797211022091513 0.63187500000000008 24.700387999894794 7.1277236938476571 35.600973076911671 24.18122482299805 8.5268673896789569 0.054375000000000007 0.14312500000000003 6.6764631271362314 57.239994049072273 6.9648013114929208 5.3706622123718271 59.448497772216804 0.84062500000000007 0.76562500000000011 0.10312500000000001 0.020625000000000004 0.40937500000000004 0.53937500000000005 5.6733140945434579 0.89062500000000011 8.1951093673706072 2.349420547485352 6.0868013664890119 14.052899837493898 0.020625000000000004
decision_type=2 2 2 2 2 2 2 2 2 2 2 2 2 2 2 2 2 2 2 2 2 2 2 2 2 2 2 2 2 2 2 2 2 2 2 2 2 2 2 2 2 2 2 2 2 2 2 2 2 2 2 2 2 2 2 2 2 2 2 2 2 2 2 2 2 2 2 2 2 2 2 2 2 2 2 2 2
left_child=2 68 3 4 7 9 -7 56 14 10 11 44 13 -10 16 17 21 18 19 -16 -20 24 -23 -24 42 35 27 -27 -28 30 52 -32 43 -34 -8 53 59 -6 45 -40 -37 -26 -4 -19 -3 -36 -47 48 49 -12 51 -13 -17 -18 69 -56 72 76 -59 62 -61 -62 63 -14 65 -15 67 -9 -2 -31 -64 -52 73 -1 -74 -50 -58
right_child=1 5 8 -5 37 6 34 66 12 -11 47 50 36 64 15 29 25 32 20 -21 -22 22 23 -25 41 26 28 -29 -30 54 31 -33 33 -35 38 40 -38 -39 39 -41 -42 -43 -44 -45 -46 46 -48 -49 75 -51 71 -53 -54 -55 55 -57 57 58 -60 60 61 -63 70 -65 -66 -67 -68 -69 -70 -71 -72 -73 74 -75 -76 -77 -78
leaf_value=0.01329940883132294 0.013888742171890085 0.0050322622056123457 0.013313536843434923 -0.018945193387131569 0.0014391261843519684 -0.01963320579236269 -0.0088423792033691037 0.0053748579554550556 -0.013581426507020416 0.016274270348830652 0.0060966438852872182 0.003188860532027929 0.0087958371483351974 0.0042969014070301636 0.01267974828847815 0.015704694121324799 0.0035202946292255226 0.011645575701955471 -0.014702278966240529 0.0083940385026112577 0.0065777736499314145 -0.0083587803060503115 0.0056029703162803948 0.012267420737576931 0.0067627101167880323 -0.0013279332319657473 0.0074409852158173456 0.0081654157160701169 0.013262509664920897 0.014674957665738902 0.0084118450930825359 0.012871562029814059 0.012728102153204045 0.015437088316144596 0.014277667978289091 0.013391531481239335 -0.0023424543789111736 -0.018785475047261278 -0.019336362275281044 0.0045602264696298356 0.011072576009534334 0.011991025035003875 0.0162268227448778 0.012724248509022299 -0.011960207016327655 -0.0085804543876594492 0.011981015529075418 -0.0053716307387949025 0.010261548798092188 -0.0043191706834419374 0.012527560098032754 0.013036115069948602 0.009999845519507812 0.0099583510878924579 -0.0067639626731854641 0.013495428258836204 0.01402827615028689 0.0078149509700987767 -0.0017731128944571087 0.017271861420687078 -0.012047735140606837 0.0052945768193025421 0.014621132200778415 0.013530408618469337 0.00092497509667655313 0.012827863432441734 0.0068599329747151818 -0.012657103686917096 0.018906326143199086 0.016032711972430457 0.012183142985959532 0.017300948243692361 0.013886670938737569 0.0046139821661624822 0.0093210726750728636 0.0043904496712707042 0.011401511359789141
leaf_count=35 38 27 2170 37 21 32 27 26 26 33 53 48 314 24 2191 429 65 1685 31 510 217 28 158 329 92 103 207 104 172 843 221 1640 1224 587 23 557 21 25 20 25 835 1689 169 16881 21 39 29 28 69 60 46 46 52 158 21 227 60 127 33 21 20 59 129 145 21 31 37 23 28 330 236 33 190 31 42 20 49
internal_value=0 0.860045 1.25378 0.940166 0.997882 0.722506 0.158382 1.05686 1.25926 0.887831 0.797492 1.0604 1.08299 0.500271 1.26414 1.27731 1.20967 1.26001 1.15951 1.20148 0.512191 1.25798 1.00626 1.05686 1.28467 1.09739 0.875604 0.430741 1.05593 1.37663 1.31164 1.2447 1.27357 1.37235 0.374096 1.16589 1.12928 -0.669768 0.531415 -0.236285 1.20792 1.17834 1.35694 1.2632 -0.027938 0.782728 0.426755 0.460222 0.55478 0.153581 1.23035 0.916369 1.52608 0.845295 1.4725 1.2721 1.1329 0.960242 0.635455 1.14652 0.804223 0.246087 1.18053 1.05781 0.810447 0.996302 0.311009 -0.0638317 1.65292 1.50856 1.31339 1.49388 1.26352 1.01531 1.32253 0.919922 1.29598
internal_count=36453 745 35708 736 699 679 195 653 34972 484 451 221 1047 102 33925 27089 6836 23326 2949 2701 248 4635 515 487 4120 2201 586 207 379 3763 2342 1861 20377 1811 163 1615 945 46 136 45 1392 1781 2339 18566 48 91 68 230 202 113 173 94 481 223 1421 248 567 269 160 924 100 79 824 459 76 55 86 49 66 1173 365 79 298 66 232 89 109
shrinkage=0.01


Tree=8
num_leaves=79
num_cat=0
split_feature=3 1 2 1 0 0 2 3 4 2 4 2 2 3 2 3 1 0 4 0 2 0 2 0 4 0 4 0 2 2 1 1 1 0 0 1 1 1 3 1 2 2 2 2 2 0 2 2 2 2 4 0 4 4 4 2 3 1 3 3 3 2 3 3 2 0 0 1 1 1 0 2 1 3 2 4 0 1
split_gain=67.1173 48.0235 45.3937 74.1556 43.6796 34.9498 38.8654 24.3458 22.348 19.3876 22.9157 26.8543 18.8551 29.6241 18.1505 35.0287 26.7258 23.645 55.9949 46.6228 36.1636 23.1327 30.7221 27.0862 23.9391 22.5007 28.02 21.8838 21.1673 18.8453 25.8599 23.5047 15.6702 24.7956 15.2549 15.247 15.2266 14.9372 13.2197 13.2183 19.8613 13.1261 12.618 12.5849 12.1553 11.8512 32.9647 10.6955 18.9733 13.1414 10.4032 13.2597 10.0077 9.80199 8.82744 28.0561 8.79335 18.3015 10.2792 8.76883 7.44574 29.784 14.7908 9.49178 15.9215 5.88076 5.68569 5.57585 14.3362 4.09236 4.02863 4.01767 3.89814 3.25076 7.42638 4.63052 2.07952 1.37682
threshold=9.1000986099243182 0.54062500000000013 2.8893165588378911 0.94437500000000008 0.33562500000000006 0.96187500000000015 8.266304016113283 8.7466111183166522 55.722468339905269 17.482352256774906 9.8645466917371074 7.1277236938476571 49.741970062255866 5.9614605903625497 13.566956520080568 8.7309718132019061 0.6618750000000001 0.33562500000000006 49.703628328524822 0.26937500000000009 40.723007202148445 0.92437500000000006 3.9547500610351567 0.95187500000000014 12.274104654759368 0.53937500000000005 12.274104654759368 0.60062500000000008 12.583028793334963 22.787584304809574 0.37437500000000007 0.44437500000000002 0.87437500000000012 0.79937500000000006 0.97187500000000016 0.73187500000000005 0.36437500000000006 0.030625000000000003 8.9327030181884783 0.95437500000000008 10.455594062805178 4.511528968811036 12.122849464416506 23.421418190002445 6.1510314941406259 0.98312500000000014 13.566956520080568 14.640541553497316 12.122849464416506 9.9107980728149432 9.3797211022091513 0.63187500000000008 24.700387999894794 17.918941107039107 35.600973076911671 24.18122482299805 8.5268673896789569 0.054375000000000007 8.6634159088134783 9.1712288856506365 6.6764631271362314 57.239994049072273 6.9648013114929208 5.3706622123718271 59.448497772216804 0.84062500000000007 0.76562500000000011 0.10312500000000001 0.020625000000000004 0.40937500000000004 0.53937500000000005 56.985607147216804 0.89062500000000011 8.1951093673706072 2.349420547485352 6.0868013664890119 0.8806250000000001 0.020625000000000004
decision_type=2 2 2 2 2 2 2 2 2 2 2 2 2 2 2 2 2 2 2 2 2 2 2 2 2 2 2 2 2 2 2 2 2 2 2 2 2 2 2 2 2 2 2 2 2 2 2 2 2 2 2 2 2 2 2 2 2 2 2 2 2 2 2 2 2 2 2 2 2 2 2 2 2 2 2 2 2 2
left_child=2 69 3 4 7 9 -7 56 14 10 11 44 13 -10 16 17 21 18 19 -16 -20 24 -23 -24 42 35 27 -27 -28 30 52 -32 43 -34 -8 53 60 -6 -37 45 -41 -26 -4 -19 -3 -36 -47 48 49 -12 51 -13 -17 -18 70 -56 73 77 -59 -49 63 -62 -63 64 -14 66 -15 68 -9 -2 -31 -65 -52 74 -1 -75 -50 -58
right_child=1 5 8 -5 37 6 34 67 12 -11 47 50 36 65 15 29 25 32 20 -21 -22 22 23 -25 41 26 28 -29 -30 54 31 -33 33 -35 39 38 -38 -39 -40 40 -42 -43 -44 -45 -46 46 -48 59 76 -51 72 -53 -54 -55 55 -57 57 58 -60 -61 61 62 -64 71 -66 -67 -68 -69 -70 -71 -72 -73 -74 75 -76 -77 -78 -79
leaf_value=0.01317549838776132 0.013760827958342577 0.004982507098549329 0.013189811576431404 -0.018777319541469988 0.0014247532906234617 -0.01944612567509146 -0.0087531281778904582 0.0053219475934323784 -0.01344398184260228 0.016125469596886672 0.0060365800997027189 0.0031573492867996767 0.0087112424358556425 0.0042546021836869542 0.012561031178675254 0.015561368043639818 0.010086348862239098 0.011535705424850756 -0.014551632293029819 0.0083131249823966691 0.0065135400469131244 -0.0082772237310330052 0.0055481596299165308 0.012152105198302184 0.0066967476960587812 -0.0013146113016370207 0.0091169562438424296 0.0080856560825298632 0.016690361734447597 0.014540395159232855 0.0083309467166360722 0.012751451569080656 0.012609181848243564 0.015297198240624534 0.014139781699233189 0.013266516276671039 -0.0023188900890145302 -0.018621980311442715 0.01096757999237832 -0.019157664598186692 0.0045145787932800666 0.011878192365734517 0.016080254177525115 0.012605235041831895 -0.011841340835608729 -0.0084936030518990031 0.01186870380998708 0.0027043735622702359 0.012529468781947229 -0.0042757899157121948 0.012409239461557323 0.012912974877989104 0.0099045877013639576 0.0040904326353532706 -0.0066951441085369304 0.013370260881910354 0.013898548486524283 0.0024536245234873279 0.0093744558176680724 -0.012202953645838462 0.01711483830268145 -0.011924971076316527 0.0052426851093013097 0.011779299554669978 0.013403972972345087 0.00091575524628072073 0.012707325645595813 0.0067921325560227142 -0.012530536542715381 0.018739530991756442 0.015887552129048164 0.014157572944858862 0.0171447821226604 0.013757781242988404 0.004568704731984786 0.0092318932875815329 0.0083640114637245373 0.011292604906431657
leaf_count=35 38 27 2170 37 21 32 27 26 26 33 53 48 314 24 2191 429 146 1685 31 510 217 28 158 329 92 103 335 104 44 843 221 1640 1224 587 23 557 21 25 835 20 25 1689 169 16881 21 39 29 23 30 60 46 46 52 77 21 227 60 83 77 21 21 20 59 190 145 21 31 37 23 28 330 175 33 190 31 42 43 49
internal_value=0 0.851862 1.24205 0.931255 0.988412 0.715567 0.156843 1.04683 1.24748 0.879332 0.789816 1.05036 1.07272 0.495418 1.25231 1.26537 1.19831 1.24822 1.14858 1.19018 0.507173 1.24622 0.996698 1.04683 1.27268 1.08698 0.867174 0.426488 1.04587 1.3639 1.29943 1.23305 1.26166 1.35967 0.370456 1.15488 1.11859 -0.663428 1.19654 0.526267 -0.233974 1.16724 1.34436 1.25138 -0.0276613 0.775171 0.422637 0.455704 0.582216 0.152055 1.21878 0.907556 1.51211 0.837129 1.45901 1.26026 1.12219 0.951046 0.629244 -0.277276 1.13568 0.796526 0.24366 1.16938 1.04775 0.802641 0.98679 0.307934 -0.0631995 1.63803 1.49478 1.30108 1.48008 1.2517 1.00567 1.3102 1.03064 1.28383
internal_count=36453 745 35708 736 699 679 195 653 34972 484 451 221 1047 102 33925 27089 6836 23326 2949 2701 248 4635 515 487 4120 2201 586 207 379 3763 2342 1861 20377 1811 163 1615 945 46 1392 136 45 1781 2339 18566 48 91 68 230 186 113 173 94 481 223 1421 248 567 269 160 44 924 100 79 824 459 76 55 86 49 66 1173 365 79 298 66 232 73 109
shrinkage=0.01


Tree=9
num_leaves=74
num_cat=0
split_feature=3 1 2 1 0 0 2 3 4 2 4 2 2 3 2 4 0 1 0 0 2 1 4 1 2 0 0 4 2 0 1 1 4 1 2 2 1 0 2 3 0 2 3 4 2 2 0 4 0 3 1 1 1 3 2 3 3 2 0 0 0 1 1 3 1 0 1 3 2 4 0 2 0
split_gain=65.8845 47.1747 44.5647 72.7399 42.835 34.277 38.1145 23.895 21.9589 19.0419 22.4911 26.3497 18.5031 29.0415 17.8568 37.6606 46.0963 44.3984 48.045 29.8373 98.9935 30.7422 26.0787 20.353 20.1185 31.7107 17.9481 15.6476 25.7746 14.9547 14.9393 14.6671 13.2567 12.9613 19.4828 11.915 11.6947 11.621 32.326 11.2249 21.0294 17.4574 16.2815 13.2902 10.5474 14.8774 13.0149 10.222 13.0125 8.63986 18.0841 10.149 8.17228 7.30705 29.2409 14.4969 9.41199 21.085 6.03981 5.76943 5.58121 5.46566 14.0524 5.01468 4.0278 3.91858 3.83563 3.19328 7.29133 4.54967 2.75664 2.75045 0.0293755
threshold=9.1000986099243182 0.54062500000000013 2.8893165588378911 0.94437500000000008 0.33562500000000006 0.96187500000000015 8.266304016113283 8.7466111183166522 55.722468339905269 17.482352256774906 9.8645466917371074 7.1277236938476571 49.741970062255866 5.9614605903625497 17.482352256774906 33.655749751560336 0.33562500000000006 0.065625000000000017 0.20812500000000003 0.47312500000000007 3.4001235961914067 0.90062500000000012 37.233090497545454 0.065625000000000017 21.060240745544437 0.66437500000000005 0.64812500000000017 7.7027757897501905 9.9107980728149432 0.97187500000000016 0.36437500000000006 0.030625000000000003 41.855519141924873 0.95437500000000008 10.455594062805178 6.1510314941406259 0.79687500000000011 0.98312500000000014 13.566956520080568 8.7309718132019061 0.89312500000000006 22.787584304809574 7.1555967330932626 33.086306137655001 15.188296318054201 12.122849464416506 0.89312500000000006 9.3797211022091513 0.63187500000000008 8.5268673896789569 0.14312500000000003 0.041875000000000009 0.38312500000000005 6.6764631271362314 57.239994049072273 6.9648013114929208 5.1890301704406747 59.448497772216804 0.26937500000000009 0.84062500000000007 0.76562500000000011 0.10312500000000001 0.020625000000000004 6.0459399223327646 0.40937500000000004 0.53937500000000005 0.89062500000000011 8.1951093673706072 2.349420547485352 6.0868013664890119 0.8806250000000001 43.396286010742195 0.90562500000000012
decision_type=2 2 2 2 2 2 2 2 2 2 2 2 2 2 2 2 2 2 2 2 2 2 2 2 2 2 2 2 2 2 2 2 2 2 2 2 2 2 2 2 2 2 2 2 2 2 2 2 2 2 2 2 2 2 2 2 2 2 2 2 2 2 2 2 2 2 2 2 2 2 2 2 2
left_child=2 64 3 4 7 9 -7 49 14 10 11 35 13 -10 19 39 17 71 -19 22 72 23 27 -22 25 -18 -23 58 -29 -8 53 -6 -24 37 -35 -3 -26 -31 -39 40 43 52 -42 -16 45 46 -12 48 -13 67 51 -51 -41 56 -55 -56 57 -14 -4 60 -15 62 -9 -58 -2 -43 -49 68 -1 -69 -47 -17 -21
right_child=1 5 8 -5 31 6 29 61 12 -11 44 47 30 59 15 16 24 18 -20 20 21 26 32 -25 36 -27 -28 28 -30 33 -32 -33 -34 34 -36 -37 -38 38 -40 41 42 65 -44 -45 -46 70 -48 66 -50 50 -52 -53 -54 54 55 -57 63 -59 -60 -61 -62 -63 -64 -65 -66 -67 -68 69 -70 -71 -72 -73 -74
leaf_value=0.01305380021270033 0.013635290546763728 0.0049333009971525904 0.014201655787424486 -0.018614043558805683 0.0014105272963478523 -0.019264410021931477 -0.0086651205674725777 0.0052696219182998428 -0.013309158706280631 0.015979992803473828 0.0047883645160318412 0.0031261594410269583 0.0069625178083524246 0.0042127516637340051 0.012899349942488371 0.016484661139328075 -0.00034721325387611221 0.011811037442065889 0.0070601850322397535 -0.020519747701076913 0.013611995256867793 0.0040995925786616759 -0.0082103815695317786 0.011093714149561227 0.012342300723389751 0.01156239687664511 0.010248529016252304 0.011091387650573482 0.012920862999921161 0.014004587337775614 -0.0022955717050765242 -0.01846291028617339 0.0070919548464804059 -0.01898399064926309 0.0044694346325602216 -0.011724478737135351 0.013122674292389159 -0.0084079455945193175 0.011758209020577321 0.01533966689855225 -0.0040928486745160529 0.014371650549666229 0.010020807122586115 0.015065106567240166 -0.0053076693309090303 0.01123673020167088 -0.0063919544221179778 0.012292923192984334 0.012792003789928286 0.013275874737058027 -0.0018075322544134421 0.0081518845801482817 0.012427973942458672 0.016961603595670397 -0.011804328686697873 0.0051913620896844002 0.01196742723711631 0.013131146537247456 0.012522059145863683 0.00090662737954775099 0.012588872041177118 0.0067251500611673308 -0.012406218019853707 0.014845325011828709 0.018577288295301635 0.015721547396638343 0.01699238632742291 0.013631292844436482 0.0045239087989986443 0.0091439208438857233 0.006763856079850734 0.013794775575979485 -0.019447630451092577
leaf_count=35 38 27 758 37 21 32 27 26 26 33 70 48 202 24 3939 50 73 547 804 20 476 180 23 2607 13473 110 152 1823 2485 23 21 25 37 20 25 21 2979 39 29 120 23 817 198 345 28 40 43 46 46 85 33 151 937 21 20 59 400 136 419 21 31 37 23 86 28 321 33 190 31 42 49 188 21
internal_value=0 0.843821 1.23052 0.922484 0.979088 0.708743 0.155332 1.03695 1.2359 0.870972 0.782261 1.04048 1.06262 0.490636 1.24069 1.25623 1.22843 1.02821 0.92787 1.19599 1.1073 1.12052 1.24672 1.15371 1.24522 0.820133 0.735065 1.25325 1.21975 0.366874 1.10808 -0.657192 0.300121 0.521204 -0.2317 -0.0273881 1.24896 0.767741 0.418581 1.32722 1.2942 1.39053 0.914041 1.30988 0.451248 0.54439 0.150546 1.20741 0.898872 1.11165 0.941979 1.03627 1.28224 1.12502 0.788954 0.241262 1.15842 0.99553 1.36473 0.794942 0.977422 0.304897 -0.0625762 1.256 1.62349 1.47811 1.46657 1.24008 0.996176 1.29809 0.903044 1.44526 -1.99708
internal_count=36453 745 35708 736 699 679 195 653 34972 484 451 221 1047 102 33925 24924 18224 1589 1351 9001 3456 3415 5545 3083 16635 183 332 5485 4308 163 945 46 60 136 45 48 16452 91 68 6700 4505 2195 221 4284 230 202 113 173 94 567 269 236 1057 924 100 79 824 338 1177 76 55 86 49 486 66 1138 79 298 66 232 89 238 41
shrinkage=0.01


Tree=10
num_leaves=100
num_cat=0
split_feature=2 1 0 2 0 4 4 2 0 3 0 4 0 1 1 2 2 0 4 4 1 3 1 2 0 0 2 0 3 0 3 2 4 4 2 3 2 2 1 2 3 2 2 0 1 2 3 2 3 4 3 0 0 1 2 2 1 1 4 3 0 0 2 1 1 1 0 2 1 2 4 1 1 2 3 0 1 1 3 4 4 0 0 2 2 3 2 3 3 1 2 3 0 4 1 2 2 1 3
split_gain=49.3707 50.2874 79.007 52.8255 37.9697 29.7259 25.0283 22.7669 40.1534 25.3009 22.7514 18.5843 63.1071 64.7921 38.1773 36.3786 32.1743 30.0691 37.1701 34.5792 28.8112 24.9644 19.2044 18.6944 25.2481 18.333 46.3533 53.0927 19.7576 21.2086 16.2942 24.6664 36.3082 34.0723 16.0574 32.6426 15.9935 15.6459 14.8208 14.4893 14.6404 39.2019 14.2502 23.8599 17.3301 13.2486 20.1473 17.8602 20.8509 14.4021 14.3089 13.1845 18.3577 12.9699 12.6195 11.9351 17.803 11.6014 14.8449 11.4801 11.4495 22.823 29.6225 20.0752 13.2893 12.78 11.3301 17.1525 11.2619 21.833 15.2046 13.7465 12.7063 11.0923 10.8886 10.4695 10.3038 9.81331 9.34925 9.25471 9.22428 8.66642 8.61492 8.45557 20.9883 13.8486 12.4126 10.4085 10.6991 9.97469 7.84286 18.8322 7.82206 7.0638 6.98426 7.22592 6.96473 6.36827 7.76712
threshold=12.122849464416506 0.6618750000000001 0.53937500000000005 3.9547500610351567 0.98312500000000014 55.722468339905269 37.233090497545454 2.8893165588378911 0.33562500000000006 8.5508799552917498 0.60062500000000008 35.600973076911671 0.33562500000000006 0.30937500000000007 0.36437500000000006 22.787584304809574 34.642948150634773 0.89937500000000015 19.56082939657243 16.347615550399862 0.49187500000000006 8.6985931396484393 0.98687500000000006 31.157722473144535 0.26937500000000009 0.18562500000000001 3.4001235961914067 0.56687500000000013 8.9776768684387225 0.92437500000000006 8.9456429481506365 7.1277236938476571 18.348539174182736 9.8645466917371074 49.741970062255866 5.9614605903625497 24.18122482299805 42.479722976684577 0.020625000000000004 6.6460800170898446 8.8940773010253924 11.050119876861574 37.62788391113282 0.91812500000000008 0.33562500000000006 52.418663024902351 5.8671205043792733 57.54533767700196 5.2813169956207284 42.504050274627552 7.024480104446412 0.77312500000000006 0.57937500000000008 0.25187500000000002 8.7871437072753924 9.9107980728149432 0.69187500000000013 0.96562500000000007 12.274104654759368 8.0620961189270037 0.57937500000000008 0.61187500000000006 36.679117202758796 0.92187500000000011 0.72062499999999996 0.90062500000000012 0.23187500000000003 37.62788391113282 0.77687500000000009 8.7871437072753924 9.3797211022091513 0.82937500000000008 0.90062500000000012 5.0629320144653329 8.715818405151369 0.47312500000000007 0.55562500000000015 0.96562500000000007 8.9327030181884783 45.989654937956765 14.45548605256406 0.28312500000000002 0.75062499999999999 59.448497772216804 57.239994049072273 6.6764631271362314 60.175178527832038 6.0868773460388192 5.6733140945434579 0.34312500000000007 6.1510314941406259 8.7309718132019061 0.96187500000000015 43.634145443176969 0.49187500000000006 44.964139938354499 5.0629320144653329 0.020625000000000004 8.8013000488281268
decision_type=2 2 2 2 2 2 2 2 2 2 2 2 2 2 2 2 2 2 2 2 2 2 2 2 2 2 2 2 2 2 2 2 2 2 2 2 2 2 2 2 2 2 2 2 2 2 2 2 2 2 2 2 2 2 2 2 2 2 2 2 2 2 2 2 2 2 2 2 2 2 2 2 2 2 2 2 2 2 2 2 2 2 2 2 2 2 2 2 2 2 2 2 2 2 2 2 2 2 2
left_child=1 6 3 57 10 11 7 8 9 80 39 15 13 23 16 17 -15 19 20 51 74 42 59 24 -13 53 27 -27 29 -28 90 32 -32 -33 35 -7 -16 -38 -10 -4 41 -41 43 44 -17 60 47 48 -47 50 -48 52 -2 -9 -6 68 -57 58 -3 -21 63 62 -62 64 -14 -63 -25 -68 69 70 -5 -70 -73 -55 -19 -58 -75 -65 -59 -51 -1 -18 -36 84 87 89 -85 88 -84 -86 91 -12 -22 -49 95 -44 -30 -11 -99
right_child=5 2 4 55 54 34 -8 25 38 97 30 12 45 14 36 21 81 18 -20 22 92 -23 -24 66 -26 26 28 -29 96 -31 31 33 -34 -35 82 -37 37 -39 -40 40 -42 -43 94 -45 -46 46 49 93 -50 79 -52 -53 -54 73 -56 56 75 78 -60 -61 61 65 -64 77 -66 -67 67 -69 71 -71 -72 72 -74 76 -76 -77 -78 -79 -80 -81 -82 -83 83 86 85 -87 -88 -89 -90 -91 -92 -93 -94 -95 -96 -97 -98 98 -100
leaf_value=0.012946075844998555 0.013595770722897913 0.00039221606262638647 -0.012785143191308008 0.012653311773880398 -0.019422205856022695 -0.013542277004730841 -0.00196992230922263 0.014361958020808266 0.0018645083175045439 0.010655318453310308 0.011451747173638741 0.0097230398290667885 0.012785517082062697 -0.020914540256059641 -0.0033915176302532373 0.013485247152973846 0.0033230354042806109 -0.0025095061615944348 0.01172646129380811 0.0072024911886699114 0.004413774663404639 0.014575086793140582 -0.0035563793768086435 0.014024439201404179 -0.0074709931395562949 0.0083640321838159871 0.011890070991197722 -0.019708538157002003 0.010342348308689448 0.0083038949262136709 -0.011527506161660964 0.012101394000140261 0.0084419537571759403 0.0034479719876490513 0.014166167065393984 0.008290019047823529 0.013714212060676231 0.0074118471254893585 -0.018471855306710656 0.0084831080250218644 -0.0051738001389669951 -0.020981592351387406 0.013326408919959523 0.00022477319644281107 0.011559493845147258 0.0078841891472645025 0.0090657543289142575 0.0083493481070793553 0.011824460410252327 0.015276396129259665 0.014083955675164066 0.017298188102714315 0.0095235573894917012 0.0037992044485750231 -0.0021122460924917182 0.0025364220795371477 0.014481006026088766 0.0095200275634271612 -0.0199094167723745 0.011657019122492947 -0.0098373803195617206 0.011859914239641129 0.0091347478930985278 0.00681560962712318 0.015650433047201203 0.01454970614805761 0.0027445258613782077 0.011752269035125511 0.014250882318023897 0.013376534319209035 0.0035209225442081543 0.0082395640371903493 0.01183751518769518 0.011225700887343655 -0.021358978814220882 0.0082713178810614567 0.01498678342777978 0.012427916414247566 -0.0037085958590135451 0.013394680352436482 0.0053128727426509327 0.0091554808656815739 0.01210323192572176 0.014235466401057611 0.0088875627218642714 -0.0025186928515092033 0.0085853007263043922 0.015381841140390444 0.0064042818471877405 0.0021437486862392022 0.011982651029972513 -0.0075455383721154939 0.01095824622648906 0.013237278154048061 0.014188055517840064 0.01090146137904429 0.014748049773064464 0.0070999936255792453 -0.0027795877233396937
leaf_count=307 1512 23 21 32 24 28 32 661 20 73 25 59 1608 21 22 1035 354 20 238 103 135 1362 22 268 32 36 2065 39 61 306 59 122 31 192 78 79 100 130 24 79 45 20 983 37 1441 249 226 50 1895 327 111 77 188 32 37 31 292 21 23 2862 27 6550 232 138 195 206 48 373 166 73 157 238 422 350 20 50 114 68 24 2325 32 48 148 128 242 35 98 61 85 55 138 22 36 1353 1038 208 318 225 22
internal_value=0 1.12406 0.973092 1.11712 0.615132 1.23385 1.19046 1.19564 0.988212 1.04247 0.679628 1.2404 1.21603 0.96725 0.642837 1.27568 0.355395 1.20328 0.88769 1.2278 0.422064 1.33258 1.14742 1.17875 0.59178 1.22726 1.17452 -0.0264542 1.1932 1.15024 0.788387 0.623253 -0.127679 0.773609 1.0304 0.514964 0.999226 1.07105 -0.623569 0.180931 0.313122 0.569106 1.29217 1.23168 1.24202 1.23587 1.27438 1.21425 1.14448 1.34017 1.10611 1.34711 1.32337 1.34269 -0.723821 1.15863 1.32704 -0.0473877 -0.712767 1.15335 1.20681 1.18411 0.807521 1.28155 1.31548 1.19582 1.23446 1.10527 1.09147 0.855141 0.570758 1.15464 1.06925 1.19584 -0.975856 1.38218 1.23283 0.905159 0.416157 1.36547 1.24461 0.419136 1.07518 1.03576 0.957071 0.715585 1.223 1.17216 1.0391 0.790783 1.07491 0.569926 0.615849 1.31045 1.35523 1.29516 1.41916 0.76069 0.648101
internal_count=36453 7084 2367 1552 815 29369 4717 4685 703 659 754 28332 17015 1455 675 11317 423 5213 449 4764 211 6104 2987 780 91 3982 2825 75 2750 2371 589 404 90 314 1037 107 252 230 44 165 144 99 4742 2513 2476 15560 6536 3547 2144 2989 337 1777 1700 1157 61 1461 373 91 46 2965 9024 7015 259 2009 1803 6756 689 421 1088 262 189 826 660 496 40 342 464 206 45 2652 339 402 930 852 626 332 226 294 233 297 185 47 171 1403 2229 1191 379 320 247
shrinkage=0.01


Tree=11
num_leaves=100
num_cat=0
split_feature=2 1 0 2 0 4 4 2 0 3 0 4 0 1 1 2 2 0 4 4 1 3 1 2 0 0 2 0 3 0 3 2 4 4 2 3 2 2 1 2 3 2 2 0 1 2 3 2 3 4 3 0 0 1 2 2 1 1 4 3 0 0 2 1 1 1 0 2 1 2 4 1 1 2 4 0 1 1 3 4 4 0 0 2 2 3 2 3 3 1 2 3 0 4 1 2 2 1 3
split_gain=48.527 49.426 77.5842 51.8421 37.228 29.2263 24.5679 22.3779 39.3804 24.8613 22.3183 18.2745 62.0266 63.6344 37.4695 35.7762 31.5183 29.5491 36.4942 33.9946 28.2383 24.5892 18.8472 18.3588 24.7594 18.0324 45.4825 52.0602 19.4276 20.8433 15.9889 24.187 35.592 33.4442 15.7608 32.0044 15.6924 15.3716 14.5546 14.1973 14.3518 38.4113 14.0073 23.4262 17.0299 13.0204 19.8137 17.5586 20.4807 14.1602 14.06 12.9779 18.0455 12.7669 12.3816 11.74 17.4872 11.3721 14.5551 11.2765 11.2511 22.4213 29.0478 19.7299 13.0674 12.5831 11.1406 16.8394 11.0656 21.4453 14.9145 13.5174 12.4763 10.8929 10.7319 10.2909 10.1274 9.63701 9.16667 9.10047 9.06071 8.50048 8.46332 8.30698 20.6091 13.5831 12.1966 10.2357 10.5043 9.78764 7.70336 18.4616 7.67604 6.94281 6.86448 7.10183 6.85014 6.25441 7.61588
threshold=12.122849464416506 0.6618750000000001 0.53937500000000005 3.9547500610351567 0.98312500000000014 55.722468339905269 37.233090497545454 2.8893165588378911 0.33562500000000006 8.5508799552917498 0.60062500000000008 35.600973076911671 0.33562500000000006 0.30937500000000007 0.36437500000000006 22.787584304809574 34.642948150634773 0.89937500000000015 19.56082939657243 16.347615550399862 0.49187500000000006 8.6985931396484393 0.98687500000000006 31.157722473144535 0.26937500000000009 0.18562500000000001 3.4001235961914067 0.56687500000000013 8.9776768684387225 0.92437500000000006 8.9456429481506365 7.1277236938476571 18.348539174182736 9.8645466917371074 49.741970062255866 5.9614605903625497 24.18122482299805 42.479722976684577 0.020625000000000004 6.6460800170898446 8.8940773010253924 11.050119876861574 37.62788391113282 0.91812500000000008 0.33562500000000006 52.418663024902351 5.8671205043792733 57.54533767700196 5.2813169956207284 42.504050274627552 7.024480104446412 0.77312500000000006 0.57937500000000008 0.25187500000000002 8.7871437072753924 9.9107980728149432 0.69187500000000013 0.96562500000000007 12.274104654759368 8.0620961189270037 0.57937500000000008 0.61187500000000006 36.679117202758796 0.92187500000000011 0.72062499999999996 0.90062500000000012 0.23187500000000003 37.62788391113282 0.77687500000000009 8.7871437072753924 9.3797211022091513 0.82937500000000008 0.90062500000000012 5.0629320144653329 16.347615550399862 0.47312500000000007 0.55562500000000015 0.96562500000000007 8.9327030181884783 45.989654937956765 14.45548605256406 0.28312500000000002 0.75062499999999999 59.448497772216804 57.239994049072273 6.6764631271362314 60.175178527832038 6.0868773460388192 5.6733140945434579 0.34312500000000007 6.1510314941406259 8.7309718132019061 0.96187500000000015 43.634145443176969 0.49187500000000006 44.964139938354499 5.0629320144653329 0.020625000000000004 8.8013000488281268
decision_type=2 2 2 2 2 2 2 2 2 2 2 2 2 2 2 2 2 2 2 2 2 2 2 2 2 2 2 2 2 2 2 2 2 2 2 2 2 2 2 2 2 2 2 2 2 2 2 2 2 2 2 2 2 2 2 2 2 2 2 2 2 2 2 2 2 2 2 2 2 2 2 2 2 2 2 2 2 2 2 2 2 2 2 2 2 2 2 2 2 2 2 2 2 2 2 2 2 2 2
left_child=1 6 3 57 10 11 7 8 9 80 39 15 13 23 16 17 -15 19 20 51 74 42 59 24 -13 53 27 -27 29 -28 90 32 -32 -33 35 -7 -16 -38 -10 -4 41 -41 43 44 -17 60 47 48 -47 50 -48 52 -2 -9 -6 68 -57 58 -3 -21 63 62 -62 64 -14 -63 -25 -68 69 70 -5 -70 -73 -55 -19 -58 -75 -65 -59 -51 -1 -18 -36 84 87 89 -85 88 -84 -86 91 -12 -22 -49 95 -44 -30 -11 -99
right_child=5 2 4 55 54 34 -8 25 38 97 30 12 45 14 36 21 81 18 -20 22 92 -23 -24 66 -26 26 28 -29 96 -31 31 33 -34 -35 82 -37 37 -39 -40 40 -42 -43 94 -45 -46 46 49 93 -50 79 -52 -53 -54 73 -56 56 75 78 -60 -61 61 65 -64 77 -66 -67 67 -69 71 -71 -72 72 -74 76 -76 -77 -78 -79 -80 -81 -82 -83 83 86 85 -87 -88 -89 -90 -91 -92 -93 -94 -95 -96 -97 -98 98 -100
leaf_value=0.012828004549687244 0.013472945063804965 0.00038829469602113745 -0.012651636937915416 0.012532822780751142 -0.019241612598908227 -0.01340938323426857 -0.0019499944355990651 0.01423423955123105 0.0018459265463878593 0.010556004801885057 0.011340501486969719 0.0096320815448783931 0.012669124976568425 -0.020688862146783341 -0.0033570240228343517 0.013363053481907469 0.0032902983684585342 -0.0024581676934863177 0.011618305378497876 0.0071338598357578225 0.0043706815282649981 0.014445969639120038 -0.0035200788943264638 0.013898055101156985 -0.0073933729203695311 0.008284757720683664 0.011780844220063492 -0.019519856494826782 0.010245679861322471 0.0082247816316040143 -0.011412806563672448 0.011988745254199197 0.0083609095606010462 0.0034137810331149022 0.014037452148093734 0.0082108615704984591 0.013589721944812744 0.0073408040438661748 -0.018316933970939787 0.0084014834092509486 -0.0051213640984404066 -0.020753672227607853 0.013205672039393542 0.00022252986010421014 0.011453206079216263 0.0078094734177357183 0.0089805381985044192 0.0082701215153440661 0.011715694365961912 0.015140595435362812 0.013956988364928744 0.017148992308623327 0.0094341888170771156 0.0037620986981407624 -0.0020912031858201152 0.0025114468444792483 0.014351422236636024 0.0094282564832474693 -0.019716005177192131 0.011549780007216211 -0.0097333303090189997 0.011751094332388618 0.0090490280795624007 0.0067503891207039588 0.01551159640270326 0.014421674047210866 0.002717526946840037 0.011643598030250016 0.014122782774930412 0.013254744616014681 0.003486184379523102 0.0081613686772477219 0.01172763981991594 0.011121858913858423 -0.021164662650650957 0.0081930706582636521 0.014852391994185362 0.01231392568152973 -0.0036712710198274052 0.013273603884228283 0.0052614327560943945 0.0090677217445910788 0.011990782650438722 0.014106716879327248 0.0088034851379456477 -0.0024932901991741351 0.0085040000155315858 0.015245083852561221 0.0063426107865712025 0.0021225798051556751 0.011870812700925548 -0.0074677457599694134 0.010855467085759725 0.013117284036745761 0.01406028566523362 0.01080068836441273 0.014616543371731398 0.0070311166585810773 -0.0027516344191408255
leaf_count=307 1512 23 21 32 24 28 32 661 20 73 25 59 1608 21 22 1035 354 20 238 103 135 1362 22 268 32 36 2065 39 61 306 59 122 31 192 78 79 100 130 24 79 45 20 983 37 1441 249 226 50 1895 327 111 77 188 32 37 31 292 21 23 2862 27 6550 232 138 195 206 48 373 166 73 157 238 422 350 20 50 114 68 24 2325 32 48 148 128 242 35 98 61 85 55 138 22 36 1353 1038 208 318 225 22
internal_value=0 1.11368 0.963978 1.10677 0.609208 1.22258 1.17955 1.18469 0.978974 1.03273 0.673088 1.22908 1.2049 0.958187 0.63665 1.26408 0.3519 1.19225 0.879319 1.21657 0.417941 1.32054 1.13685 1.16789 0.58611 1.21605 1.16373 -0.0262023 1.18224 1.13963 0.780843 0.617245 -0.126431 0.766171 1.02078 0.510027 0.989871 1.06107 -0.61775 0.179145 0.310045 0.563565 1.28041 1.22041 1.23068 1.22459 1.26277 1.20312 1.13392 1.32805 1.09588 1.33493 1.31138 1.33059 -0.716753 1.14792 1.31504 -0.046921 -0.705716 1.14273 1.19576 1.17325 0.79989 1.26989 1.30354 1.18486 1.22314 1.095 1.0813 0.84699 0.565175 1.14395 1.05925 1.18484 -0.965537 1.36973 1.22153 0.896641 0.412075 1.35316 1.23321 0.415024 1.06516 1.02609 0.948074 0.708744 1.21175 1.16131 1.02934 0.783255 1.06476 0.564288 0.6099 1.29855 1.34297 1.28339 1.40643 0.753376 0.641799
internal_count=36453 7084 2367 1552 815 29369 4717 4685 703 659 754 28332 17015 1455 675 11317 423 5213 449 4764 211 6104 2987 780 91 3982 2825 75 2750 2371 589 404 90 314 1037 107 252 230 44 165 144 99 4742 2513 2476 15560 6536 3547 2144 2989 337 1777 1700 1157 61 1461 373 91 46 2965 9024 7015 259 2009 1803 6756 689 421 1088 262 189 826 660 496 40 342 464 206 45 2652 339 402 930 852 626 332 226 294 233 297 185 47 171 1403 2229 1191 379 320 247
shrinkage=0.01


Tree=12
num_leaves=100
num_cat=0
split_feature=2 1 0 2 0 4 4 2 0 3 0 4 0 1 1 2 2 0 4 4 1 3 1 2 0 0 2 0 3 0 3 2 4 4 2 3 2 2 1 2 3 2 2 0 1 2 3 2 3 4 3 0 0 1 2 2 1 1 4 3 0 0 2 1 1 1 0 2 1 2 4 1 1 2 3 0 1 1 3 4 4 0 0 2 2 3 2 3 3 1 2 3 0 4 1 2 2 1 3
split_gain=47.7059 48.5864 76.1961 50.8812 36.5025 28.7412 24.1187 22.0004 38.6244 24.4349 21.8946 17.976 60.9762 62.5084 36.779 35.1954 30.8806 29.0435 35.8349 33.4319 27.678 24.2292 18.4983 18.0321 24.2812 17.7427 44.6303 51.0549 19.1102 20.4891 15.6915 23.7176 34.8918 32.8323 15.4713 31.3803 15.398 15.1059 14.2958 13.9122 14.0695 37.6417 13.7736 23.0036 16.741 12.8008 19.4928 17.2679 20.1517 13.9271 13.8197 12.781 17.7444 12.5715 12.1516 11.5517 17.1805 11.148 14.2745 11.079 11.0602 22.031 28.4853 19.3961 12.8551 12.3938 10.9579 16.5344 10.8746 21.0683 14.632 13.2965 12.2534 10.699 10.5311 10.1187 9.95795 9.46585 8.98804 8.95299 8.90202 8.33838 8.3168 8.16292 20.2409 13.3231 11.9881 10.0694 10.3152 9.60488 7.56706 18.0995 7.5337 6.82586 6.74959 6.9823 6.73999 6.14348 7.46779
threshold=12.122849464416506 0.6618750000000001 0.53937500000000005 3.9547500610351567 0.98312500000000014 55.722468339905269 37.233090497545454 2.8893165588378911 0.33562500000000006 8.5508799552917498 0.60062500000000008 35.600973076911671 0.33562500000000006 0.30937500000000007 0.36437500000000006 22.787584304809574 34.642948150634773 0.89937500000000015 19.56082939657243 16.347615550399862 0.49187500000000006 8.6985931396484393 0.98687500000000006 31.157722473144535 0.26937500000000009 0.18562500000000001 3.4001235961914067 0.56687500000000013 8.9776768684387225 0.92437500000000006 8.9456429481506365 7.1277236938476571 18.348539174182736 9.8645466917371074 49.741970062255866 5.9614605903625497 24.18122482299805 42.479722976684577 0.020625000000000004 6.6460800170898446 8.8940773010253924 11.050119876861574 37.62788391113282 0.91812500000000008 0.33562500000000006 52.418663024902351 5.8671205043792733 57.54533767700196 5.3706622123718271 42.504050274627552 7.024480104446412 0.77312500000000006 0.57937500000000008 0.25187500000000002 8.7871437072753924 9.9107980728149432 0.69187500000000013 0.96562500000000007 12.274104654759368 8.0620961189270037 0.57937500000000008 0.61187500000000006 36.679117202758796 0.92187500000000011 0.72062499999999996 0.90062500000000012 0.23187500000000003 37.62788391113282 0.77687500000000009 8.7871437072753924 9.3797211022091513 0.82937500000000008 0.90062500000000012 5.0629320144653329 8.715818405151369 0.47312500000000007 0.55562500000000015 0.96562500000000007 8.9327030181884783 45.989654937956765 14.45548605256406 0.28312500000000002 0.75062499999999999 59.448497772216804 57.239994049072273 6.6764631271362314 60.175178527832038 6.0868773460388192 5.6733140945434579 0.34312500000000007 6.1510314941406259 8.7309718132019061 0.96187500000000015 43.634145443176969 0.49187500000000006 44.964139938354499 5.0629320144653329 0.020625000000000004 8.8013000488281268
decision_type=2 2 2 2 2 2 2 2 2 2 2 2 2 2 2 2 2 2 2 2 2 2 2 2 2 2 2 2 2 2 2 2 2 2 2 2 2 2 2 2 2 2 2 2 2 2 2 2 2 2 2 2 2 2 2 2 2 2 2 2 2 2 2 2 2 2 2 2 2 2 2 2 2 2 2 2 2 2 2 2 2 2 2 2 2 2 2 2 2 2 2 2 2 2 2 2 2 2 2
left_child=1 6 3 57 10 11 7 8 9 80 39 15 13 23 16 17 -15 19 20 51 74 42 59 24 -13 53 27 -27 29 -28 90 32 -32 -33 35 -7 -16 -38 -10 -4 41 -41 43 44 -17 60 47 48 -47 50 -48 52 -2 -9 -6 68 -57 58 -3 -21 63 62 -62 64 -14 -63 -25 -68 69 70 -5 -70 -73 -55 -19 -58 -75 -65 -59 -51 -1 -18 -36 84 87 89 -85 88 -84 -86 91 -12 -22 -49 95 -44 -30 -11 -99
right_child=5 2 4 55 54 34 -8 25 38 97 30 12 45 14 36 21 81 18 -20 22 92 -23 -24 66 -26 26 28 -29 96 -31 31 33 -34 -35 82 -37 37 -39 -40 40 -42 -43 94 -45 -46 46 49 93 -50 79 -52 -53 -54 73 -56 56 75 78 -60 -61 61 65 -64 77 -66 -67 67 -69 71 -71 -72 72 -74 76 -76 -77 -78 -79 -80 -81 -82 -83 83 86 85 -87 -88 -89 -90 -91 -92 -93 -94 -95 -96 -97 -98 98 -100
leaf_value=0.012711958213405603 0.013352327892189056 0.00038441273712543474 -0.012520593693092217 0.012414408353016354 -0.019066111064500291 -0.013278973474017852 -0.0019302743534676166 0.014108948524453126 0.0018275314807750743 0.010458134320195414 0.011231032357359363 0.0095423619483440657 0.012554700669153755 -0.020470210517137523 -0.0033229057326560575 0.013243040766546877 0.003257897290920369 -0.0024235088597263027 0.011511844082858014 0.0070660316867231579 0.004328041229823382 0.014319348080902957 -0.0034841777687762516 0.0137740225077734 -0.0073167908724283337 0.0082064768892113876 0.011673346256710555 -0.019336596013400181 0.010150388056376764 0.008146662797899237 -0.011299984016482934 0.011877925446547477 0.0082809037377540202 0.0033799459853785948 0.013911167012298291 0.0081327011211889278 0.013467496614778416 0.0072706092934497644 -0.018166109342118781 0.0083209095875829055 -0.0050695329877228669 -0.02053288361231553 0.013087062675363734 0.00022030669678092097 0.01134855831561885 0.008654300417054301 0.0088964333851892091 0.0081918881785447203 0.011742291912535563 0.015007580036843316 0.013832395351125895 0.017003385048206147 0.0093460217844574239 0.0037253734648305462 -0.0020703737581566285 0.0024867211801360297 0.014224333271541996 0.0093377522299263188 -0.019528192947011382 0.011444208964280653 -0.009630898813125505 0.011643989868373067 0.00896442958142399 0.0066859177365451985 0.01537569251878187 0.01429610566787376 0.0026907993303228969 0.011536637096556741 0.013997107270117659 0.013135115055210247 0.003451805438543482 0.0080841461125179138 0.011619509456931137 0.011019585529320013 -0.02094789186338946 0.0081157952233822488 0.014720698102638482 0.012201815694191114 -0.003634347829126831 0.013154670991849325 0.0052105478154930353 0.0089811399676353303 0.011880158631568135 0.013980406857060944 0.0087204980989889769 -0.0024681536875055445 0.0084237324445081713 0.015111154846256891 0.0062816377244657067 0.0021016225072813936 0.01176077769311488 -0.0073909865421240154 0.010754224544384725 0.012999388179793181 0.013934922905480707 0.010701397540883457 0.014487620974484765 0.0069630606204204764 -0.0027239739916189169
leaf_count=307 1512 23 21 32 24 28 32 661 20 73 25 59 1608 21 22 1035 354 20 238 103 135 1362 22 268 32 36 2065 39 61 306 59 122 31 192 78 79 100 130 24 79 45 20 983 37 1441 405 226 50 1739 327 111 77 188 32 37 31 292 21 23 2862 27 6550 232 138 195 206 48 373 166 73 157 238 422 350 20 50 114 68 24 2325 32 48 148 128 242 35 98 61 85 55 138 22 36 1353 1038 208 318 225 22
internal_value=0 1.10348 0.955004 1.09659 0.603369 1.2115 1.16882 1.17391 0.969875 1.02313 0.666641 1.21795 1.19396 0.949258 0.630543 1.25268 0.348444 1.18141 0.871068 1.20553 0.413869 1.30871 1.12644 1.15722 0.580516 1.20503 1.15311 -0.0259553 1.17146 1.12919 0.773408 0.611317 -0.125201 0.758831 1.01131 0.505157 0.980655 1.05124 -0.612023 0.177384 0.30701 0.558105 1.26886 1.20934 1.21952 1.21348 1.25137 1.19218 1.12353 1.31615 1.08581 1.32297 1.29959 1.31871 -0.709793 1.13739 1.30326 -0.0464611 -0.698785 1.13227 1.18489 1.16256 0.79236 1.25842 1.29181 1.17408 1.21201 1.08489 1.07128 0.838954 0.559657 1.13342 1.0494 1.17403 -0.955404 1.35752 1.21042 0.888237 0.408043 1.34107 1.22201 0.410955 1.0553 1.01656 0.939206 0.701987 1.20069 1.15063 1.01973 0.77582 1.05478 0.558735 0.60402 1.28687 1.33092 1.27182 1.39394 0.746154 0.635572
internal_count=36453 7084 2367 1552 815 29369 4717 4685 703 659 754 28332 17015 1455 675 11317 423 5213 449 4764 211 6104 2987 780 91 3982 2825 75 2750 2371 589 404 90 314 1037 107 252 230 44 165 144 99 4742 2513 2476 15560 6536 3547 2144 2989 337 1777 1700 1157 61 1461 373 91 46 2965 9024 7015 259 2009 1803 6756 689 421 1088 262 189 826 660 496 40 342 464 206 45 2652 339 402 930 852 626 332 226 294 233 297 185 47 171 1403 2229 1191 379 320 247
shrinkage=0.01


Tree=13
num_leaves=100
num_cat=0
split_feature=2 1 0 2 0 4 4 2 0 3 0 4 0 1 1 2 2 0 4 4 1 3 1 2 0 0 2 0 3 0 3 2 4 4 2 3 2 2 1 2 3 2 2 0 1 0 0 2 3 2 3 4 3 1 2 2 1 1 4 3 0 0 2 1 1 1 0 2 3 4 1 4 1 2 4 0 4 1 1 3 4 4 0 0 2 2 3 2 3 3 1 2 3 0 4 1 2 2 1
split_gain=46.9064 47.7678 74.8413 49.9421 35.7927 28.2699 23.6804 21.6337 37.8848 24.0209 21.4799 17.6884 59.9545 61.4126 36.1051 34.6353 30.2605 28.5517 35.1914 32.8899 27.13 23.8836 18.1573 17.7138 23.8131 17.4631 43.7963 50.076 18.8048 20.1457 15.4018 23.258 34.2072 32.2361 15.1889 30.7699 15.1104 14.8485 14.0442 13.6338 13.7933 36.8923 13.5488 22.5916 16.4628 12.5933 17.4538 12.5893 19.184 16.9876 19.871 13.7022 13.5875 12.3834 11.929 11.3701 16.8826 10.9289 14.0029 10.8873 10.8765 21.6516 27.9347 19.0731 12.6519 12.2116 10.7817 16.2374 10.732 19.3668 15.8041 11.4139 11.3134 10.5105 10.3857 9.95253 9.87152 9.795 9.29961 8.81325 8.81188 8.74799 8.18001 8.17513 8.0232 19.8833 13.0687 11.7868 9.90913 10.1316 9.4263 7.43385 17.7454 7.39491 6.71276 6.63933 6.86709 6.63404 6.03536
threshold=12.122849464416506 0.6618750000000001 0.53937500000000005 3.9547500610351567 0.98312500000000014 55.722468339905269 37.233090497545454 2.8893165588378911 0.33562500000000006 8.5508799552917498 0.60062500000000008 35.600973076911671 0.33562500000000006 0.30937500000000007 0.36437500000000006 22.787584304809574 34.642948150634773 0.89937500000000015 19.56082939657243 16.347615550399862 0.49187500000000006 8.6985931396484393 0.98687500000000006 31.157722473144535 0.26937500000000009 0.18562500000000001 3.4001235961914067 0.56687500000000013 8.9776768684387225 0.92437500000000006 8.9456429481506365 7.1277236938476571 18.348539174182736 9.8645466917371074 49.741970062255866 5.9614605903625497 24.18122482299805 42.479722976684577 0.020625000000000004 6.6460800170898446 8.8940773010253924 11.050119876861574 37.62788391113282 0.91812500000000008 0.33562500000000006 0.77312500000000006 0.57937500000000008 52.418663024902351 5.8671205043792733 57.54533767700196 5.2813169956207284 42.504050274627552 7.024480104446412 0.25187500000000002 8.7871437072753924 9.9107980728149432 0.69187500000000013 0.96562500000000007 12.274104654759368 8.0620961189270037 0.57937500000000008 0.61187500000000006 36.679117202758796 0.92187500000000011 0.72062499999999996 0.90062500000000012 0.23187500000000003 37.62788391113282 8.9456429481506365 7.99315456715689 0.95437500000000008 9.3797211022091513 0.77687500000000009 5.0629320144653329 16.347615550399862 0.47312500000000007 8.7952099151525918 0.55562500000000015 0.96562500000000007 8.9327030181884783 45.989654937956765 14.45548605256406 0.28312500000000002 0.75062499999999999 59.448497772216804 57.239994049072273 6.6764631271362314 60.175178527832038 6.0868773460388192 5.6733140945434579 0.34312500000000007 6.1510314941406259 8.7309718132019061 0.96187500000000015 43.634145443176969 0.49187500000000006 44.964139938354499 5.0629320144653329 0.020625000000000004
decision_type=2 2 2 2 2 2 2 2 2 2 2 2 2 2 2 2 2 2 2 2 2 2 2 2 2 2 2 2 2 2 2 2 2 2 2 2 2 2 2 2 2 2 2 2 2 2 2 2 2 2 2 2 2 2 2 2 2 2 2 2 2 2 2 2 2 2 2 2 2 2 2 2 2 2 2 2 2 2 2 2 2 2 2 2 2 2 2 2 2 2 2 2 2 2 2 2 2 2 2
left_child=1 6 3 57 10 11 7 8 9 81 39 15 13 23 16 17 -15 19 20 45 74 42 59 24 -13 53 27 -27 29 -28 91 32 -32 -33 35 -7 -16 -38 -10 -4 41 -41 43 44 -17 46 -2 60 49 50 -49 52 -50 -9 -6 68 -57 58 -3 -21 63 62 -62 64 -14 -63 -25 -68 71 70 -70 -5 -73 -55 -19 -58 -71 -75 -65 -59 -53 -1 -18 -36 85 88 90 -86 89 -85 -87 92 -12 -22 -51 96 -44 -30 -11
right_child=5 2 4 55 54 34 -8 25 38 98 30 12 47 14 36 21 82 18 -20 22 93 -23 -24 66 -26 26 28 -29 97 -31 31 33 -34 -35 83 -37 37 -39 -40 40 -42 -43 95 -45 -46 -47 -48 48 51 94 -52 80 -54 73 -56 56 75 79 -60 -61 61 65 -64 78 -66 -67 67 -69 69 76 -72 72 -74 77 -76 -77 -78 -79 -80 -81 -82 -83 -84 84 87 86 -88 -89 -90 -91 -92 -93 -94 -95 -96 -97 -98 -99 -100
leaf_value=0.012597872554460281 0.013233848121277628 0.0003805691084699125 -0.012391933071623182 0.015310979442089638 -0.018895498089322432 -0.013150967333405646 -0.0019107591422872323 0.013986007154814451 0.0018093241261194204 0.010361669908739959 0.011123289895676845 0.0094538491131335011 0.01244218287846971 -0.020258272954827353 -0.003289158430654705 0.013125139475159683 0.0032258278951166771 -0.0023734923748815772 0.011407028947494796 0.0069989904391474025 0.0042858462439404705 0.014195138482479275 -0.0034486707467939947 0.013652262069977345 -0.0072412251342230038 0.0081291664758166016 0.011567526657582358 -0.01915853406309441 0.010056434791661215 0.0080695155976200344 -0.011188984138678233 0.011768880989048654 0.0082019117782896039 0.0033464628702835958 0.013787231545172045 0.0080555146268294735 0.013347462618383644 0.0072012472834435603 -0.018019228676665468 0.0082413625997726642 -0.0050182979218807147 -0.020318902748105945 0.012970512249030657 0.00021810683789099419 0.011245503347487624 0.016861234572903068 0.0092590280307614167 0.0076540953348300765 0.008813413049960821 0.0081146270397024507 0.011504146108660296 0.014877250359683743 0.013710096916709527 0.0036890230028527038 -0.0020497548980585455 0.0024622429347497207 0.014099655101398713 0.0092484839979257109 -0.019345747273205521 0.01134025800905613 -0.0095300451341782718 0.011538553404381351 0.0088809259446613383 0.0066221825645088649 0.015242617756928159 0.014172918620885313 0.0026643400201173668 0.011431336569013698 0.013411600357553856 0.0026011028242148046 0.0054303169527395289 0.0075425830153539163 0.012399154169219519 0.010918835826207392 -0.020764982212446145 0.0080394702100718713 0.0085999879109216158 0.014591609684170233 0.01209153084354935 -0.0035978223550382216 0.013037811435731548 0.0051602077687023986 0.0088957068708135061 0.011771304855920258 0.013856456395272346 0.0086385759340245668 -0.002443279190371329 0.0083444755541623779 0.014979954844578527 0.0062213515768022067 0.0020808734245387982 0.011652492556315969 -0.0073152386637988275 0.010654475947967089 0.012883525666998748 0.013811887713499723 0.010603550347956884 0.014361195619513482 0.0062941824365348132
leaf_count=307 1512 23 21 85 24 28 32 661 20 73 25 59 1608 21 22 1035 354 20 238 103 135 1362 22 268 32 36 2065 39 61 306 59 122 31 192 78 79 100 130 24 79 45 20 983 37 1441 77 188 249 226 50 1895 327 111 32 37 31 292 21 23 2862 27 6550 232 138 195 206 48 373 187 65 55 118 202 350 20 50 376 114 68 24 2325 32 48 148 128 242 35 98 61 85 55 138 22 36 1353 1038 208 318 247
internal_value=0 1.09344 0.946169 1.08657 0.597614 1.2006 1.15826 1.16331 0.960909 1.01367 0.660285 1.207 1.18319 0.940461 0.624513 1.24147 0.345026 1.17073 0.862935 1.19467 0.409848 1.29709 1.11619 1.14672 0.574998 1.19419 1.14266 -0.0257131 1.16084 1.1189 0.766078 0.605468 -0.123989 0.751587 1.00198 0.500352 0.971575 1.04155 -0.606386 0.175648 0.304018 0.552725 1.2575 1.19844 1.20854 1.31122 1.28801 1.20256 1.24015 1.18141 1.11329 1.30446 1.07589 1.30704 -0.702938 1.12702 1.29168 -0.0460079 -0.69197 1.12197 1.1742 1.15204 0.784929 1.24715 1.28029 1.16347 1.20106 1.07493 1.06142 0.96276 1.2124 1.20594 1.09099 1.16338 -0.94546 1.34553 0.78933 1.19948 0.879945 0.404062 1.32919 1.21099 0.40693 1.04559 1.00717 0.930464 0.695313 1.18982 1.14013 1.01025 0.768478 1.04494 0.553265 0.598207 1.27538 1.3191 1.26045 1.38168 0.739022
